digraph Tree {
node [shape=box, style="filled, rounded", color="black", fontname="helvetica"] ;
edge [fontname="helvetica"] ;
0 [label=<ParentalEducation &le; 10.5<br/>gini = 0.797<br/>samples = 4156<br/>value = [845, 900, 948, 788, 675]<br/>class = 2>, fillcolor="#fcfffe"] ;
1 [label=<ParentalEducation &le; 4.5<br/>gini = 0.733<br/>samples = 2604<br/>value = [685.0, 787.0, 785.0, 323.0, 24.0]<br/>class = 1>, fillcolor="#ffffff"] ;
0 -> 1 [labeldistance=2.5, labelangle=45, headlabel="True"] ;
2 [label=<ParentalSupport &le; 0.5<br/>gini = 0.663<br/>samples = 1427<br/>value = [564, 543, 267, 49, 4]<br/>class = 0>, fillcolor="#fefcfa"] ;
1 -> 2 ;
3 [label=<Tutoring &le; 0.5<br/>gini = 0.693<br/>samples = 873<br/>value = [268, 326, 232, 45, 2]<br/>class = 1>, fillcolor="#f2fdec"] ;
2 -> 3 ;
4 [label=<Gender &le; 1.058<br/>gini = 0.607<br/>samples = 68<br/>value = [14, 18, 36, 0, 0]<br/>class = 2>, fillcolor="#b8f6ea"] ;
3 -> 4 ;
5 [label=<Extracurricular &le; 2.5<br/>gini = 0.513<br/>samples = 56<br/>value = [14, 6, 36, 0, 0]<br/>class = 2>, fillcolor="#97f1e1"] ;
4 -> 5 ;
6 [label=<StudyTimeWeekly &le; 0.5<br/>gini = 0.18<br/>samples = 40<br/>value = [0, 4, 36, 0, 0]<br/>class = 2>, fillcolor="#4fe8cb"] ;
5 -> 6 ;
7 [label=<ParentalEducation &le; 0.5<br/>gini = 0.238<br/>samples = 29<br/>value = [0, 4, 25, 0, 0]<br/>class = 2>, fillcolor="#59e9ce"] ;
6 -> 7 ;
8 [label=<gini = 0.0<br/>samples = 4<br/>value = [0, 4, 0, 0, 0]<br/>class = 1>, fillcolor="#7be539"] ;
7 -> 8 ;
9 [label=<gini = 0.0<br/>samples = 25<br/>value = [0, 0, 25, 0, 0]<br/>class = 2>, fillcolor="#39e5c5"] ;
7 -> 9 ;
10 [label=<gini = 0.0<br/>samples = 11<br/>value = [0, 0, 11, 0, 0]<br/>class = 2>, fillcolor="#39e5c5"] ;
6 -> 10 ;
11 [label=<Music &le; 0.5<br/>gini = 0.219<br/>samples = 16<br/>value = [14, 2, 0, 0, 0]<br/>class = 0>, fillcolor="#e99355"] ;
5 -> 11 ;
12 [label=<Volunteering &le; 0.5<br/>gini = 0.375<br/>samples = 8<br/>value = [6, 2, 0, 0, 0]<br/>class = 0>, fillcolor="#eeab7b"] ;
11 -> 12 ;
13 [label=<gini = 0.0<br/>samples = 2<br/>value = [0, 2, 0, 0, 0]<br/>class = 1>, fillcolor="#7be539"] ;
12 -> 13 ;
14 [label=<gini = 0.0<br/>samples = 6<br/>value = [6, 0, 0, 0, 0]<br/>class = 0>, fillcolor="#e58139"] ;
12 -> 14 ;
15 [label=<gini = 0.0<br/>samples = 8<br/>value = [8, 0, 0, 0, 0]<br/>class = 0>, fillcolor="#e58139"] ;
11 -> 15 ;
16 [label=<gini = 0.0<br/>samples = 12<br/>value = [0, 12, 0, 0, 0]<br/>class = 1>, fillcolor="#7be539"] ;
4 -> 16 ;
17 [label=<ParentalEducation &le; 0.5<br/>gini = 0.692<br/>samples = 805<br/>value = [254.0, 308.0, 196.0, 45.0, 2.0]<br/>class = 1>, fillcolor="#f2fcec"] ;
3 -> 17 ;
18 [label=<Volunteering &le; 0.5<br/>gini = 0.616<br/>samples = 213<br/>value = [111, 63, 33, 5, 1]<br/>class = 0>, fillcolor="#f7d7c0"] ;
17 -> 18 ;
19 [label=<Gender &le; 0.327<br/>gini = 0.639<br/>samples = 156<br/>value = [70.0, 57.0, 25.0, 3.0, 1.0]<br/>class = 0>, fillcolor="#fceee5"] ;
18 -> 19 ;
20 [label=<Sports &le; 0.5<br/>gini = 0.603<br/>samples = 83<br/>value = [13, 46, 21, 3, 0]<br/>class = 1>, fillcolor="#caf5af"] ;
19 -> 20 ;
21 [label=<Tutoring &le; 1.5<br/>gini = 0.677<br/>samples = 41<br/>value = [7.0, 17.0, 14.0, 3.0, 0.0]<br/>class = 1>, fillcolor="#f0fce9"] ;
20 -> 21 ;
22 [label=<Extracurricular &le; 3.5<br/>gini = 0.631<br/>samples = 15<br/>value = [7, 5, 0, 3, 0]<br/>class = 0>, fillcolor="#fae6d7"] ;
21 -> 22 ;
23 [label=<Gender &le; -1.018<br/>gini = 0.469<br/>samples = 8<br/>value = [0, 5, 0, 3, 0]<br/>class = 1>, fillcolor="#caf5b0"] ;
22 -> 23 ;
24 [label=<gini = 0.0<br/>samples = 3<br/>value = [0, 0, 0, 3, 0]<br/>class = 3>, fillcolor="#3c39e5"] ;
23 -> 24 ;
25 [label=<gini = 0.0<br/>samples = 5<br/>value = [0, 5, 0, 0, 0]<br/>class = 1>, fillcolor="#7be539"] ;
23 -> 25 ;
26 [label=<gini = 0.0<br/>samples = 7<br/>value = [7, 0, 0, 0, 0]<br/>class = 0>, fillcolor="#e58139"] ;
22 -> 26 ;
27 [label=<Extracurricular &le; 2.0<br/>gini = 0.497<br/>samples = 26<br/>value = [0, 12, 14, 0, 0]<br/>class = 2>, fillcolor="#e3fbf7"] ;
21 -> 27 ;
28 [label=<gini = 0.0<br/>samples = 14<br/>value = [0, 0, 14, 0, 0]<br/>class = 2>, fillcolor="#39e5c5"] ;
27 -> 28 ;
29 [label=<gini = 0.0<br/>samples = 12<br/>value = [0, 12, 0, 0, 0]<br/>class = 1>, fillcolor="#7be539"] ;
27 -> 29 ;
30 [label=<Gender &le; -0.635<br/>gini = 0.475<br/>samples = 42<br/>value = [6, 29, 7, 0, 0]<br/>class = 1>, fillcolor="#acef83"] ;
20 -> 30 ;
31 [label=<Absences &le; 0.5<br/>gini = 0.287<br/>samples = 23<br/>value = [0, 19, 4, 0, 0]<br/>class = 1>, fillcolor="#97ea63"] ;
30 -> 31 ;
32 [label=<Gender &le; -1.204<br/>gini = 0.5<br/>samples = 8<br/>value = [0, 4, 4, 0, 0]<br/>class = 1>, fillcolor="#ffffff"] ;
31 -> 32 ;
33 [label=<gini = 0.0<br/>samples = 4<br/>value = [0, 0, 4, 0, 0]<br/>class = 2>, fillcolor="#39e5c5"] ;
32 -> 33 ;
34 [label=<gini = 0.0<br/>samples = 4<br/>value = [0, 4, 0, 0, 0]<br/>class = 1>, fillcolor="#7be539"] ;
32 -> 34 ;
35 [label=<gini = 0.0<br/>samples = 15<br/>value = [0, 15, 0, 0, 0]<br/>class = 1>, fillcolor="#7be539"] ;
31 -> 35 ;
36 [label=<Gender &le; -0.454<br/>gini = 0.598<br/>samples = 19<br/>value = [6, 10, 3, 0, 0]<br/>class = 1>, fillcolor="#d6f7c2"] ;
30 -> 36 ;
37 [label=<gini = 0.0<br/>samples = 6<br/>value = [6, 0, 0, 0, 0]<br/>class = 0>, fillcolor="#e58139"] ;
36 -> 37 ;
38 [label=<StudyTimeWeekly &le; 0.5<br/>gini = 0.355<br/>samples = 13<br/>value = [0, 10, 3, 0, 0]<br/>class = 1>, fillcolor="#a3ed74"] ;
36 -> 38 ;
39 [label=<Absences &le; 0.5<br/>gini = 0.444<br/>samples = 9<br/>value = [0, 6, 3, 0, 0]<br/>class = 1>, fillcolor="#bdf29c"] ;
38 -> 39 ;
40 [label=<gini = 0.0<br/>samples = 6<br/>value = [0, 6, 0, 0, 0]<br/>class = 1>, fillcolor="#7be539"] ;
39 -> 40 ;
41 [label=<gini = 0.0<br/>samples = 3<br/>value = [0, 0, 3, 0, 0]<br/>class = 2>, fillcolor="#39e5c5"] ;
39 -> 41 ;
42 [label=<gini = 0.0<br/>samples = 4<br/>value = [0, 4, 0, 0, 0]<br/>class = 1>, fillcolor="#7be539"] ;
38 -> 42 ;
43 [label=<Absences &le; 0.5<br/>gini = 0.364<br/>samples = 73<br/>value = [57, 11, 4, 0, 1]<br/>class = 0>, fillcolor="#eca26c"] ;
19 -> 43 ;
44 [label=<Extracurricular &le; 3.5<br/>gini = 0.604<br/>samples = 32<br/>value = [17, 10, 4, 0, 1]<br/>class = 0>, fillcolor="#f7d7c0"] ;
43 -> 44 ;
45 [label=<Extracurricular &le; 2.5<br/>gini = 0.48<br/>samples = 15<br/>value = [0, 10, 4, 0, 1]<br/>class = 1>, fillcolor="#b7f193"] ;
44 -> 45 ;
46 [label=<Extracurricular &le; 1.5<br/>gini = 0.562<br/>samples = 11<br/>value = [0, 6, 4, 0, 1]<br/>class = 1>, fillcolor="#d9f8c6"] ;
45 -> 46 ;
47 [label=<Tutoring &le; 1.5<br/>gini = 0.406<br/>samples = 8<br/>value = [0, 6, 1, 0, 1]<br/>class = 1>, fillcolor="#a1ec72"] ;
46 -> 47 ;
48 [label=<gini = 0.32<br/>samples = 5<br/>value = [0, 4, 1, 0, 0]<br/>class = 1>, fillcolor="#9cec6a"] ;
47 -> 48 ;
49 [label=<gini = 0.444<br/>samples = 3<br/>value = [0, 2, 0, 0, 1]<br/>class = 1>, fillcolor="#bdf29c"] ;
47 -> 49 ;
50 [label=<gini = 0.0<br/>samples = 3<br/>value = [0, 0, 3, 0, 0]<br/>class = 2>, fillcolor="#39e5c5"] ;
46 -> 50 ;
51 [label=<gini = 0.0<br/>samples = 4<br/>value = [0, 4, 0, 0, 0]<br/>class = 1>, fillcolor="#7be539"] ;
45 -> 51 ;
52 [label=<gini = 0.0<br/>samples = 17<br/>value = [17, 0, 0, 0, 0]<br/>class = 0>, fillcolor="#e58139"] ;
44 -> 52 ;
53 [label=<Gender &le; 1.19<br/>gini = 0.048<br/>samples = 41<br/>value = [40, 1, 0, 0, 0]<br/>class = 0>, fillcolor="#e6843e"] ;
43 -> 53 ;
54 [label=<gini = 0.0<br/>samples = 27<br/>value = [27, 0, 0, 0, 0]<br/>class = 0>, fillcolor="#e58139"] ;
53 -> 54 ;
55 [label=<gini = 0.133<br/>samples = 14<br/>value = [13, 1, 0, 0, 0]<br/>class = 0>, fillcolor="#e78b48"] ;
53 -> 55 ;
56 [label=<Extracurricular &le; 1.0<br/>gini = 0.451<br/>samples = 57<br/>value = [41, 6, 8, 2, 0]<br/>class = 0>, fillcolor="#edaa7a"] ;
18 -> 56 ;
57 [label=<gini = 0.0<br/>samples = 3<br/>value = [0, 0, 3, 0, 0]<br/>class = 2>, fillcolor="#39e5c5"] ;
56 -> 57 ;
58 [label=<Gender &le; -0.881<br/>gini = 0.401<br/>samples = 54<br/>value = [41, 6, 5, 2, 0]<br/>class = 0>, fillcolor="#eca36f"] ;
56 -> 58 ;
59 [label=<gini = 0.0<br/>samples = 5<br/>value = [0, 0, 5, 0, 0]<br/>class = 2>, fillcolor="#39e5c5"] ;
58 -> 59 ;
60 [label=<StudyTimeWeekly &le; 0.5<br/>gini = 0.283<br/>samples = 49<br/>value = [41.0, 6.0, 0.0, 2.0, 0.0]<br/>class = 0>, fillcolor="#ea985e"] ;
58 -> 60 ;
61 [label=<Gender &le; -0.674<br/>gini = 0.161<br/>samples = 34<br/>value = [31, 3, 0, 0, 0]<br/>class = 0>, fillcolor="#e88d4c"] ;
60 -> 61 ;
62 [label=<Sports &le; 0.5<br/>gini = 0.397<br/>samples = 11<br/>value = [8, 3, 0, 0, 0]<br/>class = 0>, fillcolor="#efb083"] ;
61 -> 62 ;
63 [label=<gini = 0.0<br/>samples = 8<br/>value = [8, 0, 0, 0, 0]<br/>class = 0>, fillcolor="#e58139"] ;
62 -> 63 ;
64 [label=<gini = 0.0<br/>samples = 3<br/>value = [0, 3, 0, 0, 0]<br/>class = 1>, fillcolor="#7be539"] ;
62 -> 64 ;
65 [label=<gini = 0.0<br/>samples = 23<br/>value = [23, 0, 0, 0, 0]<br/>class = 0>, fillcolor="#e58139"] ;
61 -> 65 ;
66 [label=<Tutoring &le; 1.5<br/>gini = 0.498<br/>samples = 15<br/>value = [10, 3, 0, 2, 0]<br/>class = 0>, fillcolor="#f0b68c"] ;
60 -> 66 ;
67 [label=<gini = 0.0<br/>samples = 3<br/>value = [0, 3, 0, 0, 0]<br/>class = 1>, fillcolor="#7be539"] ;
66 -> 67 ;
68 [label=<Gender &le; 0.669<br/>gini = 0.278<br/>samples = 12<br/>value = [10, 0, 0, 2, 0]<br/>class = 0>, fillcolor="#ea9a61"] ;
66 -> 68 ;
69 [label=<gini = 0.0<br/>samples = 2<br/>value = [0, 0, 0, 2, 0]<br/>class = 3>, fillcolor="#3c39e5"] ;
68 -> 69 ;
70 [label=<gini = 0.0<br/>samples = 10<br/>value = [10, 0, 0, 0, 0]<br/>class = 0>, fillcolor="#e58139"] ;
68 -> 70 ;
71 [label=<ParentalEducation &le; 1.5<br/>gini = 0.69<br/>samples = 592<br/>value = [143, 245, 163, 40, 1]<br/>class = 1>, fillcolor="#e6fad9"] ;
17 -> 71 ;
72 [label=<Volunteering &le; 0.5<br/>gini = 0.624<br/>samples = 204<br/>value = [56.0, 105.0, 38.0, 5.0, 0.0]<br/>class = 1>, fillcolor="#d3f6bd"] ;
71 -> 72 ;
73 [label=<Gender &le; 1.374<br/>gini = 0.659<br/>samples = 157<br/>value = [49, 70, 33, 5, 0]<br/>class = 1>, fillcolor="#e5fad9"] ;
72 -> 73 ;
74 [label=<Extracurricular &le; 2.5<br/>gini = 0.638<br/>samples = 130<br/>value = [29, 66, 30, 5, 0]<br/>class = 1>, fillcolor="#cff6b8"] ;
73 -> 74 ;
75 [label=<Gender &le; -0.197<br/>gini = 0.535<br/>samples = 70<br/>value = [0, 37, 30, 3, 0]<br/>class = 1>, fillcolor="#e8fadc"] ;
74 -> 75 ;
76 [label=<Sports &le; 0.5<br/>gini = 0.446<br/>samples = 28<br/>value = [0, 5, 20, 3, 0]<br/>class = 2>, fillcolor="#7eeed9"] ;
75 -> 76 ;
77 [label=<Gender &le; -0.56<br/>gini = 0.51<br/>samples = 23<br/>value = [0, 5, 15, 3, 0]<br/>class = 2>, fillcolor="#91f1df"] ;
76 -> 77 ;
78 [label=<Absences &le; 0.5<br/>gini = 0.278<br/>samples = 12<br/>value = [0, 2, 10, 0, 0]<br/>class = 2>, fillcolor="#61ead1"] ;
77 -> 78 ;
79 [label=<gini = 0.0<br/>samples = 4<br/>value = [0, 0, 4, 0, 0]<br/>class = 2>, fillcolor="#39e5c5"] ;
78 -> 79 ;
80 [label=<Gender &le; -1.069<br/>gini = 0.375<br/>samples = 8<br/>value = [0, 2, 6, 0, 0]<br/>class = 2>, fillcolor="#7beed8"] ;
78 -> 80 ;
81 [label=<gini = 0.0<br/>samples = 2<br/>value = [0, 2, 0, 0, 0]<br/>class = 1>, fillcolor="#7be539"] ;
80 -> 81 ;
82 [label=<gini = 0.0<br/>samples = 6<br/>value = [0, 0, 6, 0, 0]<br/>class = 2>, fillcolor="#39e5c5"] ;
80 -> 82 ;
83 [label=<StudyTimeWeekly &le; 0.5<br/>gini = 0.645<br/>samples = 11<br/>value = [0, 3, 5, 3, 0]<br/>class = 2>, fillcolor="#cef8f0"] ;
77 -> 83 ;
84 [label=<Tutoring &le; 3.0<br/>gini = 0.469<br/>samples = 8<br/>value = [0, 0, 5, 3, 0]<br/>class = 2>, fillcolor="#b0f5e8"] ;
83 -> 84 ;
85 [label=<Extracurricular &le; 0.5<br/>gini = 0.48<br/>samples = 5<br/>value = [0, 0, 2, 3, 0]<br/>class = 3>, fillcolor="#bebdf6"] ;
84 -> 85 ;
86 [label=<gini = 0.0<br/>samples = 2<br/>value = [0, 0, 2, 0, 0]<br/>class = 2>, fillcolor="#39e5c5"] ;
85 -> 86 ;
87 [label=<gini = 0.0<br/>samples = 3<br/>value = [0, 0, 0, 3, 0]<br/>class = 3>, fillcolor="#3c39e5"] ;
85 -> 87 ;
88 [label=<gini = 0.0<br/>samples = 3<br/>value = [0, 0, 3, 0, 0]<br/>class = 2>, fillcolor="#39e5c5"] ;
84 -> 88 ;
89 [label=<gini = 0.0<br/>samples = 3<br/>value = [0, 3, 0, 0, 0]<br/>class = 1>, fillcolor="#7be539"] ;
83 -> 89 ;
90 [label=<gini = 0.0<br/>samples = 5<br/>value = [0, 0, 5, 0, 0]<br/>class = 2>, fillcolor="#39e5c5"] ;
76 -> 90 ;
91 [label=<Sports &le; 0.5<br/>gini = 0.363<br/>samples = 42<br/>value = [0, 32, 10, 0, 0]<br/>class = 1>, fillcolor="#a4ed77"] ;
75 -> 91 ;
92 [label=<Tutoring &le; 2.5<br/>gini = 0.43<br/>samples = 32<br/>value = [0, 22, 10, 0, 0]<br/>class = 1>, fillcolor="#b7f193"] ;
91 -> 92 ;
93 [label=<Extracurricular &le; 1.5<br/>gini = 0.486<br/>samples = 24<br/>value = [0, 14, 10, 0, 0]<br/>class = 1>, fillcolor="#d9f8c6"] ;
92 -> 93 ;
94 [label=<gini = 0.0<br/>samples = 5<br/>value = [0, 0, 5, 0, 0]<br/>class = 2>, fillcolor="#39e5c5"] ;
93 -> 94 ;
95 [label=<Music &le; 0.5<br/>gini = 0.388<br/>samples = 19<br/>value = [0, 14, 5, 0, 0]<br/>class = 1>, fillcolor="#aaee80"] ;
93 -> 95 ;
96 [label=<Tutoring &le; 1.5<br/>gini = 0.337<br/>samples = 14<br/>value = [0, 11, 3, 0, 0]<br/>class = 1>, fillcolor="#9fec6f"] ;
95 -> 96 ;
97 [label=<gini = 0.0<br/>samples = 7<br/>value = [0, 7, 0, 0, 0]<br/>class = 1>, fillcolor="#7be539"] ;
96 -> 97 ;
98 [label=<gini = 0.49<br/>samples = 7<br/>value = [0, 4, 3, 0, 0]<br/>class = 1>, fillcolor="#def8ce"] ;
96 -> 98 ;
99 [label=<Gender &le; 0.281<br/>gini = 0.48<br/>samples = 5<br/>value = [0, 3, 2, 0, 0]<br/>class = 1>, fillcolor="#d3f6bd"] ;
95 -> 99 ;
100 [label=<gini = 0.0<br/>samples = 3<br/>value = [0, 3, 0, 0, 0]<br/>class = 1>, fillcolor="#7be539"] ;
99 -> 100 ;
101 [label=<gini = 0.0<br/>samples = 2<br/>value = [0, 0, 2, 0, 0]<br/>class = 2>, fillcolor="#39e5c5"] ;
99 -> 101 ;
102 [label=<gini = 0.0<br/>samples = 8<br/>value = [0, 8, 0, 0, 0]<br/>class = 1>, fillcolor="#7be539"] ;
92 -> 102 ;
103 [label=<gini = 0.0<br/>samples = 10<br/>value = [0, 10, 0, 0, 0]<br/>class = 1>, fillcolor="#7be539"] ;
91 -> 103 ;
104 [label=<Absences &le; 0.5<br/>gini = 0.532<br/>samples = 60<br/>value = [29, 29, 0, 2, 0]<br/>class = 0>, fillcolor="#ffffff"] ;
74 -> 104 ;
105 [label=<Extracurricular &le; 3.5<br/>gini = 0.18<br/>samples = 20<br/>value = [0, 18, 0, 2, 0]<br/>class = 1>, fillcolor="#8ae84f"] ;
104 -> 105 ;
106 [label=<StudyTimeWeekly &le; 0.5<br/>gini = 0.198<br/>samples = 18<br/>value = [0, 16, 0, 2, 0]<br/>class = 1>, fillcolor="#8ce852"] ;
105 -> 106 ;
107 [label=<Gender &le; 0.224<br/>gini = 0.231<br/>samples = 15<br/>value = [0, 13, 0, 2, 0]<br/>class = 1>, fillcolor="#8fe957"] ;
106 -> 107 ;
108 [label=<gini = 0.0<br/>samples = 13<br/>value = [0, 13, 0, 0, 0]<br/>class = 1>, fillcolor="#7be539"] ;
107 -> 108 ;
109 [label=<gini = 0.0<br/>samples = 2<br/>value = [0, 0, 0, 2, 0]<br/>class = 3>, fillcolor="#3c39e5"] ;
107 -> 109 ;
110 [label=<gini = 0.0<br/>samples = 3<br/>value = [0, 3, 0, 0, 0]<br/>class = 1>, fillcolor="#7be539"] ;
106 -> 110 ;
111 [label=<gini = 0.0<br/>samples = 2<br/>value = [0, 2, 0, 0, 0]<br/>class = 1>, fillcolor="#7be539"] ;
105 -> 111 ;
112 [label=<StudyTimeWeekly &le; 0.5<br/>gini = 0.399<br/>samples = 40<br/>value = [29, 11, 0, 0, 0]<br/>class = 0>, fillcolor="#efb184"] ;
104 -> 112 ;
113 [label=<Sports &le; 0.5<br/>gini = 0.284<br/>samples = 35<br/>value = [29.0, 6.0, 0.0, 0.0, 0.0]<br/>class = 0>, fillcolor="#ea9b62"] ;
112 -> 113 ;
114 [label=<Gender &le; 0.287<br/>gini = 0.457<br/>samples = 17<br/>value = [11, 6, 0, 0, 0]<br/>class = 0>, fillcolor="#f3c6a5"] ;
113 -> 114 ;
115 [label=<gini = 0.0<br/>samples = 11<br/>value = [11, 0, 0, 0, 0]<br/>class = 0>, fillcolor="#e58139"] ;
114 -> 115 ;
116 [label=<gini = 0.0<br/>samples = 6<br/>value = [0, 6, 0, 0, 0]<br/>class = 1>, fillcolor="#7be539"] ;
114 -> 116 ;
117 [label=<gini = 0.0<br/>samples = 18<br/>value = [18, 0, 0, 0, 0]<br/>class = 0>, fillcolor="#e58139"] ;
113 -> 117 ;
118 [label=<gini = 0.0<br/>samples = 5<br/>value = [0, 5, 0, 0, 0]<br/>class = 1>, fillcolor="#7be539"] ;
112 -> 118 ;
119 [label=<Tutoring &le; 1.5<br/>gini = 0.417<br/>samples = 27<br/>value = [20, 4, 3, 0, 0]<br/>class = 0>, fillcolor="#eda775"] ;
73 -> 119 ;
120 [label=<Extracurricular &le; 0.5<br/>gini = 0.49<br/>samples = 7<br/>value = [4, 0, 3, 0, 0]<br/>class = 0>, fillcolor="#f8e0ce"] ;
119 -> 120 ;
121 [label=<gini = 0.0<br/>samples = 3<br/>value = [0, 0, 3, 0, 0]<br/>class = 2>, fillcolor="#39e5c5"] ;
120 -> 121 ;
122 [label=<gini = 0.0<br/>samples = 4<br/>value = [4, 0, 0, 0, 0]<br/>class = 0>, fillcolor="#e58139"] ;
120 -> 122 ;
123 [label=<Gender &le; 1.631<br/>gini = 0.32<br/>samples = 20<br/>value = [16, 4, 0, 0, 0]<br/>class = 0>, fillcolor="#eca06a"] ;
119 -> 123 ;
124 [label=<Extracurricular &le; 1.5<br/>gini = 0.111<br/>samples = 17<br/>value = [16, 1, 0, 0, 0]<br/>class = 0>, fillcolor="#e78945"] ;
123 -> 124 ;
125 [label=<gini = 0.245<br/>samples = 7<br/>value = [6, 1, 0, 0, 0]<br/>class = 0>, fillcolor="#e9965a"] ;
124 -> 125 ;
126 [label=<gini = 0.0<br/>samples = 10<br/>value = [10, 0, 0, 0, 0]<br/>class = 0>, fillcolor="#e58139"] ;
124 -> 126 ;
127 [label=<gini = 0.0<br/>samples = 3<br/>value = [0, 3, 0, 0, 0]<br/>class = 1>, fillcolor="#7be539"] ;
123 -> 127 ;
128 [label=<Gender &le; 1.244<br/>gini = 0.412<br/>samples = 47<br/>value = [7, 35, 5, 0, 0]<br/>class = 1>, fillcolor="#a3ed74"] ;
72 -> 128 ;
129 [label=<Absences &le; 0.5<br/>gini = 0.234<br/>samples = 37<br/>value = [0, 32, 5, 0, 0]<br/>class = 1>, fillcolor="#90e958"] ;
128 -> 129 ;
130 [label=<Gender &le; -0.528<br/>gini = 0.486<br/>samples = 12<br/>value = [0, 7, 5, 0, 0]<br/>class = 1>, fillcolor="#d9f8c6"] ;
129 -> 130 ;
131 [label=<gini = 0.0<br/>samples = 5<br/>value = [0, 0, 5, 0, 0]<br/>class = 2>, fillcolor="#39e5c5"] ;
130 -> 131 ;
132 [label=<gini = 0.0<br/>samples = 7<br/>value = [0, 7, 0, 0, 0]<br/>class = 1>, fillcolor="#7be539"] ;
130 -> 132 ;
133 [label=<gini = 0.0<br/>samples = 25<br/>value = [0, 25, 0, 0, 0]<br/>class = 1>, fillcolor="#7be539"] ;
129 -> 133 ;
134 [label=<Gender &le; 1.406<br/>gini = 0.42<br/>samples = 10<br/>value = [7, 3, 0, 0, 0]<br/>class = 0>, fillcolor="#f0b78e"] ;
128 -> 134 ;
135 [label=<gini = 0.0<br/>samples = 7<br/>value = [7, 0, 0, 0, 0]<br/>class = 0>, fillcolor="#e58139"] ;
134 -> 135 ;
136 [label=<gini = 0.0<br/>samples = 3<br/>value = [0, 3, 0, 0, 0]<br/>class = 1>, fillcolor="#7be539"] ;
134 -> 136 ;
137 [label=<Gender &le; -0.144<br/>gini = 0.708<br/>samples = 388<br/>value = [87.0, 140.0, 125.0, 35.0, 1.0]<br/>class = 1>, fillcolor="#f7fef4"] ;
71 -> 137 ;
138 [label=<Music &le; 0.5<br/>gini = 0.631<br/>samples = 180<br/>value = [16, 56, 91, 17, 0]<br/>class = 2>, fillcolor="#c7f8ef"] ;
137 -> 138 ;
139 [label=<Extracurricular &le; 1.5<br/>gini = 0.602<br/>samples = 128<br/>value = [16, 25, 74, 13, 0]<br/>class = 2>, fillcolor="#a1f3e3"] ;
138 -> 139 ;
140 [label=<ParentalEducation &le; 3.5<br/>gini = 0.351<br/>samples = 44<br/>value = [0, 0, 34, 10, 0]<br/>class = 2>, fillcolor="#73edd6"] ;
139 -> 140 ;
141 [label=<StudyTimeWeekly &le; 0.5<br/>gini = 0.149<br/>samples = 37<br/>value = [0, 0, 34, 3, 0]<br/>class = 2>, fillcolor="#4ae7ca"] ;
140 -> 141 ;
142 [label=<Absences &le; 0.5<br/>gini = 0.056<br/>samples = 35<br/>value = [0, 0, 34, 1, 0]<br/>class = 2>, fillcolor="#3fe6c7"] ;
141 -> 142 ;
143 [label=<gini = 0.0<br/>samples = 12<br/>value = [0, 0, 12, 0, 0]<br/>class = 2>, fillcolor="#39e5c5"] ;
142 -> 143 ;
144 [label=<Sports &le; 0.5<br/>gini = 0.083<br/>samples = 23<br/>value = [0, 0, 22, 1, 0]<br/>class = 2>, fillcolor="#42e6c8"] ;
142 -> 144 ;
145 [label=<gini = 0.0<br/>samples = 10<br/>value = [0, 0, 10, 0, 0]<br/>class = 2>, fillcolor="#39e5c5"] ;
144 -> 145 ;
146 [label=<Gender &le; -0.998<br/>gini = 0.142<br/>samples = 13<br/>value = [0, 0, 12, 1, 0]<br/>class = 2>, fillcolor="#49e7ca"] ;
144 -> 146 ;
147 [label=<gini = 0.375<br/>samples = 4<br/>value = [0, 0, 3, 1, 0]<br/>class = 2>, fillcolor="#7beed8"] ;
146 -> 147 ;
148 [label=<gini = 0.0<br/>samples = 9<br/>value = [0, 0, 9, 0, 0]<br/>class = 2>, fillcolor="#39e5c5"] ;
146 -> 148 ;
149 [label=<gini = 0.0<br/>samples = 2<br/>value = [0, 0, 0, 2, 0]<br/>class = 3>, fillcolor="#3c39e5"] ;
141 -> 149 ;
150 [label=<gini = 0.0<br/>samples = 7<br/>value = [0, 0, 0, 7, 0]<br/>class = 3>, fillcolor="#3c39e5"] ;
140 -> 150 ;
151 [label=<Sports &le; 0.5<br/>gini = 0.647<br/>samples = 84<br/>value = [16, 25, 40, 3, 0]<br/>class = 2>, fillcolor="#cdf8f0"] ;
139 -> 151 ;
152 [label=<Volunteering &le; 0.5<br/>gini = 0.661<br/>samples = 51<br/>value = [10.0, 14.0, 24.0, 3.0, 0.0]<br/>class = 2>, fillcolor="#c9f8ef"] ;
151 -> 152 ;
153 [label=<Tutoring &le; 2.5<br/>gini = 0.621<br/>samples = 44<br/>value = [10, 7, 24, 3, 0]<br/>class = 2>, fillcolor="#adf4e7"] ;
152 -> 153 ;
154 [label=<ParentalEducation &le; 3.5<br/>gini = 0.305<br/>samples = 16<br/>value = [0, 0, 13, 3, 0]<br/>class = 2>, fillcolor="#67ebd2"] ;
153 -> 154 ;
155 [label=<Extracurricular &le; 2.5<br/>gini = 0.355<br/>samples = 13<br/>value = [0, 0, 10, 3, 0]<br/>class = 2>, fillcolor="#74edd6"] ;
154 -> 155 ;
156 [label=<gini = 0.0<br/>samples = 4<br/>value = [0, 0, 4, 0, 0]<br/>class = 2>, fillcolor="#39e5c5"] ;
155 -> 156 ;
157 [label=<gini = 0.444<br/>samples = 9<br/>value = [0, 0, 6, 3, 0]<br/>class = 2>, fillcolor="#9cf2e2"] ;
155 -> 157 ;
158 [label=<gini = 0.0<br/>samples = 3<br/>value = [0, 0, 3, 0, 0]<br/>class = 2>, fillcolor="#39e5c5"] ;
154 -> 158 ;
159 [label=<Extracurricular &le; 2.5<br/>gini = 0.656<br/>samples = 28<br/>value = [10, 7, 11, 0, 0]<br/>class = 2>, fillcolor="#f4fefc"] ;
153 -> 159 ;
160 [label=<gini = 0.0<br/>samples = 3<br/>value = [0, 0, 3, 0, 0]<br/>class = 2>, fillcolor="#39e5c5"] ;
159 -> 160 ;
161 [label=<Gender &le; -1.568<br/>gini = 0.659<br/>samples = 25<br/>value = [10.0, 7.0, 8.0, 0.0, 0.0]<br/>class = 0>, fillcolor="#fcf0e8"] ;
159 -> 161 ;
162 [label=<gini = 0.0<br/>samples = 10<br/>value = [10, 0, 0, 0, 0]<br/>class = 0>, fillcolor="#e58139"] ;
161 -> 162 ;
163 [label=<Absences &le; 0.5<br/>gini = 0.498<br/>samples = 15<br/>value = [0, 7, 8, 0, 0]<br/>class = 2>, fillcolor="#e6fcf8"] ;
161 -> 163 ;
164 [label=<gini = 0.0<br/>samples = 2<br/>value = [0, 0, 2, 0, 0]<br/>class = 2>, fillcolor="#39e5c5"] ;
163 -> 164 ;
165 [label=<gini = 0.497<br/>samples = 13<br/>value = [0, 7, 6, 0, 0]<br/>class = 1>, fillcolor="#ecfbe3"] ;
163 -> 165 ;
166 [label=<gini = 0.0<br/>samples = 7<br/>value = [0, 7, 0, 0, 0]<br/>class = 1>, fillcolor="#7be539"] ;
152 -> 166 ;
167 [label=<ParentalEducation &le; 3.5<br/>gini = 0.621<br/>samples = 33<br/>value = [6, 11, 16, 0, 0]<br/>class = 2>, fillcolor="#d2f9f2"] ;
151 -> 167 ;
168 [label=<Gender &le; -1.74<br/>gini = 0.43<br/>samples = 16<br/>value = [0, 11, 5, 0, 0]<br/>class = 1>, fillcolor="#b7f193"] ;
167 -> 168 ;
169 [label=<gini = 0.0<br/>samples = 2<br/>value = [0, 0, 2, 0, 0]<br/>class = 2>, fillcolor="#39e5c5"] ;
168 -> 169 ;
170 [label=<Tutoring &le; 1.5<br/>gini = 0.337<br/>samples = 14<br/>value = [0, 11, 3, 0, 0]<br/>class = 1>, fillcolor="#9fec6f"] ;
168 -> 170 ;
171 [label=<ParentalEducation &le; 2.5<br/>gini = 0.48<br/>samples = 5<br/>value = [0, 2, 3, 0, 0]<br/>class = 2>, fillcolor="#bdf6ec"] ;
170 -> 171 ;
172 [label=<gini = 0.0<br/>samples = 3<br/>value = [0, 0, 3, 0, 0]<br/>class = 2>, fillcolor="#39e5c5"] ;
171 -> 172 ;
173 [label=<gini = 0.0<br/>samples = 2<br/>value = [0, 2, 0, 0, 0]<br/>class = 1>, fillcolor="#7be539"] ;
171 -> 173 ;
174 [label=<gini = 0.0<br/>samples = 9<br/>value = [0, 9, 0, 0, 0]<br/>class = 1>, fillcolor="#7be539"] ;
170 -> 174 ;
175 [label=<Extracurricular &le; 2.5<br/>gini = 0.457<br/>samples = 17<br/>value = [6, 0, 11, 0, 0]<br/>class = 2>, fillcolor="#a5f3e5"] ;
167 -> 175 ;
176 [label=<gini = 0.0<br/>samples = 11<br/>value = [0, 0, 11, 0, 0]<br/>class = 2>, fillcolor="#39e5c5"] ;
175 -> 176 ;
177 [label=<gini = 0.0<br/>samples = 6<br/>value = [6, 0, 0, 0, 0]<br/>class = 0>, fillcolor="#e58139"] ;
175 -> 177 ;
178 [label=<Tutoring &le; 2.5<br/>gini = 0.532<br/>samples = 52<br/>value = [0, 31, 17, 4, 0]<br/>class = 1>, fillcolor="#caf5b0"] ;
138 -> 178 ;
179 [label=<Extracurricular &le; 1.5<br/>gini = 0.434<br/>samples = 40<br/>value = [0, 29, 7, 4, 0]<br/>class = 1>, fillcolor="#a7ee7b"] ;
178 -> 179 ;
180 [label=<Sports &le; 0.5<br/>gini = 0.375<br/>samples = 8<br/>value = [0, 0, 6, 2, 0]<br/>class = 2>, fillcolor="#7beed8"] ;
179 -> 180 ;
181 [label=<gini = 0.444<br/>samples = 3<br/>value = [0, 0, 1, 2, 0]<br/>class = 3>, fillcolor="#9e9cf2"] ;
180 -> 181 ;
182 [label=<gini = 0.0<br/>samples = 5<br/>value = [0, 0, 5, 0, 0]<br/>class = 2>, fillcolor="#39e5c5"] ;
180 -> 182 ;
183 [label=<Tutoring &le; 1.5<br/>gini = 0.174<br/>samples = 32<br/>value = [0, 29, 1, 2, 0]<br/>class = 1>, fillcolor="#88e84d"] ;
179 -> 183 ;
184 [label=<Sports &le; 0.5<br/>gini = 0.29<br/>samples = 18<br/>value = [0, 15, 1, 2, 0]<br/>class = 1>, fillcolor="#94ea5e"] ;
183 -> 184 ;
185 [label=<ParentalEducation &le; 3.5<br/>gini = 0.494<br/>samples = 9<br/>value = [0, 6, 1, 2, 0]<br/>class = 1>, fillcolor="#b4f08e"] ;
184 -> 185 ;
186 [label=<Extracurricular &le; 2.5<br/>gini = 0.245<br/>samples = 7<br/>value = [0, 6, 1, 0, 0]<br/>class = 1>, fillcolor="#91e95a"] ;
185 -> 186 ;
187 [label=<gini = 0.32<br/>samples = 5<br/>value = [0, 4, 1, 0, 0]<br/>class = 1>, fillcolor="#9cec6a"] ;
186 -> 187 ;
188 [label=<gini = 0.0<br/>samples = 2<br/>value = [0, 2, 0, 0, 0]<br/>class = 1>, fillcolor="#7be539"] ;
186 -> 188 ;
189 [label=<gini = 0.0<br/>samples = 2<br/>value = [0, 0, 0, 2, 0]<br/>class = 3>, fillcolor="#3c39e5"] ;
185 -> 189 ;
190 [label=<gini = 0.0<br/>samples = 9<br/>value = [0, 9, 0, 0, 0]<br/>class = 1>, fillcolor="#7be539"] ;
184 -> 190 ;
191 [label=<gini = 0.0<br/>samples = 14<br/>value = [0, 14, 0, 0, 0]<br/>class = 1>, fillcolor="#7be539"] ;
183 -> 191 ;
192 [label=<ParentalEducation &le; 3.5<br/>gini = 0.278<br/>samples = 12<br/>value = [0, 2, 10, 0, 0]<br/>class = 2>, fillcolor="#61ead1"] ;
178 -> 192 ;
193 [label=<gini = 0.0<br/>samples = 10<br/>value = [0, 0, 10, 0, 0]<br/>class = 2>, fillcolor="#39e5c5"] ;
192 -> 193 ;
194 [label=<gini = 0.0<br/>samples = 2<br/>value = [0, 2, 0, 0, 0]<br/>class = 1>, fillcolor="#7be539"] ;
192 -> 194 ;
195 [label=<Absences &le; 0.5<br/>gini = 0.686<br/>samples = 208<br/>value = [71, 84, 34, 18, 1]<br/>class = 1>, fillcolor="#f2fdec"] ;
137 -> 195 ;
196 [label=<Gender &le; 1.004<br/>gini = 0.686<br/>samples = 112<br/>value = [50, 28, 23, 11, 0]<br/>class = 0>, fillcolor="#f8decb"] ;
195 -> 196 ;
197 [label=<Extracurricular &le; 2.5<br/>gini = 0.713<br/>samples = 56<br/>value = [13, 11, 23, 9, 0]<br/>class = 2>, fillcolor="#d1f9f2"] ;
196 -> 197 ;
198 [label=<Gender &le; 0.44<br/>gini = 0.617<br/>samples = 35<br/>value = [8, 0, 18, 9, 0]<br/>class = 2>, fillcolor="#baf6eb"] ;
197 -> 198 ;
199 [label=<gini = 0.0<br/>samples = 10<br/>value = [0, 0, 10, 0, 0]<br/>class = 2>, fillcolor="#39e5c5"] ;
198 -> 199 ;
200 [label=<ParentalEducation &le; 3.5<br/>gini = 0.666<br/>samples = 25<br/>value = [8, 0, 8, 9, 0]<br/>class = 3>, fillcolor="#f4f3fd"] ;
198 -> 200 ;
201 [label=<Sports &le; 0.5<br/>gini = 0.49<br/>samples = 14<br/>value = [8, 0, 6, 0, 0]<br/>class = 0>, fillcolor="#f8e0ce"] ;
200 -> 201 ;
202 [label=<gini = 0.0<br/>samples = 3<br/>value = [0, 0, 3, 0, 0]<br/>class = 2>, fillcolor="#39e5c5"] ;
201 -> 202 ;
203 [label=<Gender &le; 0.794<br/>gini = 0.397<br/>samples = 11<br/>value = [8, 0, 3, 0, 0]<br/>class = 0>, fillcolor="#efb083"] ;
201 -> 203 ;
204 [label=<gini = 0.198<br/>samples = 9<br/>value = [8, 0, 1, 0, 0]<br/>class = 0>, fillcolor="#e89152"] ;
203 -> 204 ;
205 [label=<gini = 0.0<br/>samples = 2<br/>value = [0, 0, 2, 0, 0]<br/>class = 2>, fillcolor="#39e5c5"] ;
203 -> 205 ;
206 [label=<Extracurricular &le; 0.5<br/>gini = 0.298<br/>samples = 11<br/>value = [0, 0, 2, 9, 0]<br/>class = 3>, fillcolor="#6765eb"] ;
200 -> 206 ;
207 [label=<gini = 0.0<br/>samples = 2<br/>value = [0, 0, 2, 0, 0]<br/>class = 2>, fillcolor="#39e5c5"] ;
206 -> 207 ;
208 [label=<gini = 0.0<br/>samples = 9<br/>value = [0, 0, 0, 9, 0]<br/>class = 3>, fillcolor="#3c39e5"] ;
206 -> 208 ;
209 [label=<Volunteering &le; 0.5<br/>gini = 0.612<br/>samples = 21<br/>value = [5, 11, 5, 0, 0]<br/>class = 1>, fillcolor="#cef5b5"] ;
197 -> 209 ;
210 [label=<Gender &le; 0.73<br/>gini = 0.43<br/>samples = 16<br/>value = [0, 11, 5, 0, 0]<br/>class = 1>, fillcolor="#b7f193"] ;
209 -> 210 ;
211 [label=<Music &le; 0.5<br/>gini = 0.26<br/>samples = 13<br/>value = [0, 11, 2, 0, 0]<br/>class = 1>, fillcolor="#93ea5d"] ;
210 -> 211 ;
212 [label=<Sports &le; 0.5<br/>gini = 0.375<br/>samples = 8<br/>value = [0, 6, 2, 0, 0]<br/>class = 1>, fillcolor="#a7ee7b"] ;
211 -> 212 ;
213 [label=<StudyTimeWeekly &le; 0.5<br/>gini = 0.444<br/>samples = 6<br/>value = [0, 4, 2, 0, 0]<br/>class = 1>, fillcolor="#bdf29c"] ;
212 -> 213 ;
214 [label=<gini = 0.0<br/>samples = 2<br/>value = [0, 0, 2, 0, 0]<br/>class = 2>, fillcolor="#39e5c5"] ;
213 -> 214 ;
215 [label=<gini = 0.0<br/>samples = 4<br/>value = [0, 4, 0, 0, 0]<br/>class = 1>, fillcolor="#7be539"] ;
213 -> 215 ;
216 [label=<gini = 0.0<br/>samples = 2<br/>value = [0, 2, 0, 0, 0]<br/>class = 1>, fillcolor="#7be539"] ;
212 -> 216 ;
217 [label=<gini = 0.0<br/>samples = 5<br/>value = [0, 5, 0, 0, 0]<br/>class = 1>, fillcolor="#7be539"] ;
211 -> 217 ;
218 [label=<gini = 0.0<br/>samples = 3<br/>value = [0, 0, 3, 0, 0]<br/>class = 2>, fillcolor="#39e5c5"] ;
210 -> 218 ;
219 [label=<gini = 0.0<br/>samples = 5<br/>value = [5, 0, 0, 0, 0]<br/>class = 0>, fillcolor="#e58139"] ;
209 -> 219 ;
220 [label=<StudyTimeWeekly &le; 0.5<br/>gini = 0.47<br/>samples = 56<br/>value = [37, 17, 0, 2, 0]<br/>class = 0>, fillcolor="#f2be99"] ;
196 -> 220 ;
221 [label=<Tutoring &le; 1.5<br/>gini = 0.526<br/>samples = 44<br/>value = [25.0, 17.0, 0.0, 2.0, 0.0]<br/>class = 0>, fillcolor="#f7dac4"] ;
220 -> 221 ;
222 [label=<gini = 0.0<br/>samples = 25<br/>value = [25, 0, 0, 0, 0]<br/>class = 0>, fillcolor="#e58139"] ;
221 -> 222 ;
223 [label=<Extracurricular &le; 3.5<br/>gini = 0.188<br/>samples = 19<br/>value = [0, 17, 0, 2, 0]<br/>class = 1>, fillcolor="#8be850"] ;
221 -> 223 ;
224 [label=<gini = 0.0<br/>samples = 13<br/>value = [0, 13, 0, 0, 0]<br/>class = 1>, fillcolor="#7be539"] ;
223 -> 224 ;
225 [label=<Gender &le; 1.123<br/>gini = 0.444<br/>samples = 6<br/>value = [0, 4, 0, 2, 0]<br/>class = 1>, fillcolor="#bdf29c"] ;
223 -> 225 ;
226 [label=<gini = 0.0<br/>samples = 4<br/>value = [0, 4, 0, 0, 0]<br/>class = 1>, fillcolor="#7be539"] ;
225 -> 226 ;
227 [label=<gini = 0.0<br/>samples = 2<br/>value = [0, 0, 0, 2, 0]<br/>class = 3>, fillcolor="#3c39e5"] ;
225 -> 227 ;
228 [label=<gini = 0.0<br/>samples = 12<br/>value = [12, 0, 0, 0, 0]<br/>class = 0>, fillcolor="#e58139"] ;
220 -> 228 ;
229 [label=<Gender &le; 0.025<br/>gini = 0.593<br/>samples = 96<br/>value = [21, 56, 11, 7, 1]<br/>class = 1>, fillcolor="#c1f3a3"] ;
195 -> 229 ;
230 [label=<Gender &le; -0.077<br/>gini = 0.226<br/>samples = 24<br/>value = [21, 2, 0, 1, 0]<br/>class = 0>, fillcolor="#e99254"] ;
229 -> 230 ;
231 [label=<gini = 0.444<br/>samples = 3<br/>value = [0, 2, 0, 1, 0]<br/>class = 1>, fillcolor="#bdf29c"] ;
230 -> 231 ;
232 [label=<gini = 0.0<br/>samples = 21<br/>value = [21, 0, 0, 0, 0]<br/>class = 0>, fillcolor="#e58139"] ;
230 -> 232 ;
233 [label=<Gender &le; 0.501<br/>gini = 0.407<br/>samples = 72<br/>value = [0, 54, 11, 6, 1]<br/>class = 1>, fillcolor="#a2ed73"] ;
229 -> 233 ;
234 [label=<Extracurricular &le; 2.5<br/>gini = 0.111<br/>samples = 34<br/>value = [0, 32, 2, 0, 0]<br/>class = 1>, fillcolor="#83e745"] ;
233 -> 234 ;
235 [label=<Sports &le; 0.5<br/>gini = 0.245<br/>samples = 14<br/>value = [0, 12, 2, 0, 0]<br/>class = 1>, fillcolor="#91e95a"] ;
234 -> 235 ;
236 [label=<gini = 0.0<br/>samples = 9<br/>value = [0, 9, 0, 0, 0]<br/>class = 1>, fillcolor="#7be539"] ;
235 -> 236 ;
237 [label=<Tutoring &le; 2.5<br/>gini = 0.48<br/>samples = 5<br/>value = [0, 3, 2, 0, 0]<br/>class = 1>, fillcolor="#d3f6bd"] ;
235 -> 237 ;
238 [label=<gini = 0.0<br/>samples = 3<br/>value = [0, 3, 0, 0, 0]<br/>class = 1>, fillcolor="#7be539"] ;
237 -> 238 ;
239 [label=<gini = 0.0<br/>samples = 2<br/>value = [0, 0, 2, 0, 0]<br/>class = 2>, fillcolor="#39e5c5"] ;
237 -> 239 ;
240 [label=<gini = 0.0<br/>samples = 20<br/>value = [0, 20, 0, 0, 0]<br/>class = 1>, fillcolor="#7be539"] ;
234 -> 240 ;
241 [label=<Gender &le; 1.248<br/>gini = 0.583<br/>samples = 38<br/>value = [0, 22, 9, 6, 1]<br/>class = 1>, fillcolor="#c4f3a6"] ;
233 -> 241 ;
242 [label=<Music &le; 0.5<br/>gini = 0.695<br/>samples = 20<br/>value = [0, 7, 6, 6, 1]<br/>class = 1>, fillcolor="#f6fdf1"] ;
241 -> 242 ;
243 [label=<Extracurricular &le; 2.5<br/>gini = 0.663<br/>samples = 13<br/>value = [0, 2, 6, 4, 1]<br/>class = 2>, fillcolor="#d3f9f2"] ;
242 -> 243 ;
244 [label=<Sports &le; 0.5<br/>gini = 0.375<br/>samples = 8<br/>value = [0, 2, 6, 0, 0]<br/>class = 2>, fillcolor="#7beed8"] ;
243 -> 244 ;
245 [label=<gini = 0.0<br/>samples = 6<br/>value = [0, 0, 6, 0, 0]<br/>class = 2>, fillcolor="#39e5c5"] ;
244 -> 245 ;
246 [label=<gini = 0.0<br/>samples = 2<br/>value = [0, 2, 0, 0, 0]<br/>class = 1>, fillcolor="#7be539"] ;
244 -> 246 ;
247 [label=<gini = 0.32<br/>samples = 5<br/>value = [0, 0, 0, 4, 1]<br/>class = 3>, fillcolor="#6d6aec"] ;
243 -> 247 ;
248 [label=<Gender &le; 1.014<br/>gini = 0.408<br/>samples = 7<br/>value = [0, 5, 0, 2, 0]<br/>class = 1>, fillcolor="#b0ef88"] ;
242 -> 248 ;
249 [label=<gini = 0.0<br/>samples = 5<br/>value = [0, 5, 0, 0, 0]<br/>class = 1>, fillcolor="#7be539"] ;
248 -> 249 ;
250 [label=<gini = 0.0<br/>samples = 2<br/>value = [0, 0, 0, 2, 0]<br/>class = 3>, fillcolor="#3c39e5"] ;
248 -> 250 ;
251 [label=<Gender &le; 1.546<br/>gini = 0.278<br/>samples = 18<br/>value = [0, 15, 3, 0, 0]<br/>class = 1>, fillcolor="#95ea61"] ;
241 -> 251 ;
252 [label=<Sports &le; 0.5<br/>gini = 0.42<br/>samples = 10<br/>value = [0, 7, 3, 0, 0]<br/>class = 1>, fillcolor="#b4f08e"] ;
251 -> 252 ;
253 [label=<gini = 0.0<br/>samples = 7<br/>value = [0, 7, 0, 0, 0]<br/>class = 1>, fillcolor="#7be539"] ;
252 -> 253 ;
254 [label=<gini = 0.0<br/>samples = 3<br/>value = [0, 0, 3, 0, 0]<br/>class = 2>, fillcolor="#39e5c5"] ;
252 -> 254 ;
255 [label=<gini = 0.0<br/>samples = 8<br/>value = [0, 8, 0, 0, 0]<br/>class = 1>, fillcolor="#7be539"] ;
251 -> 255 ;
256 [label=<ParentalEducation &le; 1.5<br/>gini = 0.557<br/>samples = 554<br/>value = [296, 217, 35, 4, 2]<br/>class = 0>, fillcolor="#f9e1d1"] ;
2 -> 256 ;
257 [label=<Extracurricular &le; 2.5<br/>gini = 0.471<br/>samples = 262<br/>value = [177, 69, 14, 0, 2]<br/>class = 0>, fillcolor="#f0b890"] ;
256 -> 257 ;
258 [label=<Extracurricular &le; 1.5<br/>gini = 0.563<br/>samples = 128<br/>value = [60, 59, 9, 0, 0]<br/>class = 0>, fillcolor="#fffdfc"] ;
257 -> 258 ;
259 [label=<Gender &le; -1.595<br/>gini = 0.449<br/>samples = 50<br/>value = [33, 17, 0, 0, 0]<br/>class = 0>, fillcolor="#f2c29f"] ;
258 -> 259 ;
260 [label=<gini = 0.0<br/>samples = 4<br/>value = [0, 4, 0, 0, 0]<br/>class = 1>, fillcolor="#7be539"] ;
259 -> 260 ;
261 [label=<Volunteering &le; 0.5<br/>gini = 0.405<br/>samples = 46<br/>value = [33.0, 13.0, 0.0, 0.0, 0.0]<br/>class = 0>, fillcolor="#efb387"] ;
259 -> 261 ;
262 [label=<Gender &le; 1.124<br/>gini = 0.452<br/>samples = 29<br/>value = [19, 10, 0, 0, 0]<br/>class = 0>, fillcolor="#f3c3a1"] ;
261 -> 262 ;
263 [label=<Music &le; 0.5<br/>gini = 0.208<br/>samples = 17<br/>value = [15, 2, 0, 0, 0]<br/>class = 0>, fillcolor="#e89253"] ;
262 -> 263 ;
264 [label=<Tutoring &le; 2.5<br/>gini = 0.32<br/>samples = 10<br/>value = [8, 2, 0, 0, 0]<br/>class = 0>, fillcolor="#eca06a"] ;
263 -> 264 ;
265 [label=<gini = 0.0<br/>samples = 8<br/>value = [8, 0, 0, 0, 0]<br/>class = 0>, fillcolor="#e58139"] ;
264 -> 265 ;
266 [label=<gini = 0.0<br/>samples = 2<br/>value = [0, 2, 0, 0, 0]<br/>class = 1>, fillcolor="#7be539"] ;
264 -> 266 ;
267 [label=<gini = 0.0<br/>samples = 7<br/>value = [7, 0, 0, 0, 0]<br/>class = 0>, fillcolor="#e58139"] ;
263 -> 267 ;
268 [label=<Music &le; 0.5<br/>gini = 0.444<br/>samples = 12<br/>value = [4, 8, 0, 0, 0]<br/>class = 1>, fillcolor="#bdf29c"] ;
262 -> 268 ;
269 [label=<gini = 0.0<br/>samples = 4<br/>value = [0, 4, 0, 0, 0]<br/>class = 1>, fillcolor="#7be539"] ;
268 -> 269 ;
270 [label=<Absences &le; 0.5<br/>gini = 0.5<br/>samples = 8<br/>value = [4, 4, 0, 0, 0]<br/>class = 0>, fillcolor="#ffffff"] ;
268 -> 270 ;
271 [label=<gini = 0.0<br/>samples = 4<br/>value = [4, 0, 0, 0, 0]<br/>class = 0>, fillcolor="#e58139"] ;
270 -> 271 ;
272 [label=<gini = 0.0<br/>samples = 4<br/>value = [0, 4, 0, 0, 0]<br/>class = 1>, fillcolor="#7be539"] ;
270 -> 272 ;
273 [label=<ParentalEducation &le; 0.5<br/>gini = 0.291<br/>samples = 17<br/>value = [14, 3, 0, 0, 0]<br/>class = 0>, fillcolor="#eb9c63"] ;
261 -> 273 ;
274 [label=<gini = 0.0<br/>samples = 14<br/>value = [14, 0, 0, 0, 0]<br/>class = 0>, fillcolor="#e58139"] ;
273 -> 274 ;
275 [label=<gini = 0.0<br/>samples = 3<br/>value = [0, 3, 0, 0, 0]<br/>class = 1>, fillcolor="#7be539"] ;
273 -> 275 ;
276 [label=<Gender &le; 0.02<br/>gini = 0.577<br/>samples = 78<br/>value = [27, 42, 9, 0, 0]<br/>class = 1>, fillcolor="#d8f7c5"] ;
258 -> 276 ;
277 [label=<ParentalEducation &le; 0.5<br/>gini = 0.637<br/>samples = 41<br/>value = [19, 13, 9, 0, 0]<br/>class = 0>, fillcolor="#f9e4d5"] ;
276 -> 277 ;
278 [label=<Gender &le; -1.527<br/>gini = 0.492<br/>samples = 16<br/>value = [9, 7, 0, 0, 0]<br/>class = 0>, fillcolor="#f9e3d3"] ;
277 -> 278 ;
279 [label=<gini = 0.0<br/>samples = 5<br/>value = [5, 0, 0, 0, 0]<br/>class = 0>, fillcolor="#e58139"] ;
278 -> 279 ;
280 [label=<Music &le; 0.5<br/>gini = 0.463<br/>samples = 11<br/>value = [4, 7, 0, 0, 0]<br/>class = 1>, fillcolor="#c6f4aa"] ;
278 -> 280 ;
281 [label=<gini = 0.0<br/>samples = 7<br/>value = [0, 7, 0, 0, 0]<br/>class = 1>, fillcolor="#7be539"] ;
280 -> 281 ;
282 [label=<gini = 0.0<br/>samples = 4<br/>value = [4, 0, 0, 0, 0]<br/>class = 0>, fillcolor="#e58139"] ;
280 -> 282 ;
283 [label=<Volunteering &le; 0.5<br/>gini = 0.653<br/>samples = 25<br/>value = [10, 6, 9, 0, 0]<br/>class = 0>, fillcolor="#fdf7f3"] ;
277 -> 283 ;
284 [label=<Sports &le; 0.5<br/>gini = 0.58<br/>samples = 21<br/>value = [10, 2, 9, 0, 0]<br/>class = 0>, fillcolor="#fdf4ee"] ;
283 -> 284 ;
285 [label=<Absences &le; 0.5<br/>gini = 0.18<br/>samples = 10<br/>value = [0, 1, 9, 0, 0]<br/>class = 2>, fillcolor="#4fe8cb"] ;
284 -> 285 ;
286 [label=<Tutoring &le; 1.5<br/>gini = 0.245<br/>samples = 7<br/>value = [0, 1, 6, 0, 0]<br/>class = 2>, fillcolor="#5ae9cf"] ;
285 -> 286 ;
287 [label=<gini = 0.375<br/>samples = 4<br/>value = [0, 1, 3, 0, 0]<br/>class = 2>, fillcolor="#7beed8"] ;
286 -> 287 ;
288 [label=<gini = 0.0<br/>samples = 3<br/>value = [0, 0, 3, 0, 0]<br/>class = 2>, fillcolor="#39e5c5"] ;
286 -> 288 ;
289 [label=<gini = 0.0<br/>samples = 3<br/>value = [0, 0, 3, 0, 0]<br/>class = 2>, fillcolor="#39e5c5"] ;
285 -> 289 ;
290 [label=<gini = 0.165<br/>samples = 11<br/>value = [10, 1, 0, 0, 0]<br/>class = 0>, fillcolor="#e88e4d"] ;
284 -> 290 ;
291 [label=<gini = 0.0<br/>samples = 4<br/>value = [0, 4, 0, 0, 0]<br/>class = 1>, fillcolor="#7be539"] ;
283 -> 291 ;
292 [label=<Volunteering &le; 0.5<br/>gini = 0.339<br/>samples = 37<br/>value = [8, 29, 0, 0, 0]<br/>class = 1>, fillcolor="#9fec70"] ;
276 -> 292 ;
293 [label=<Gender &le; 0.424<br/>gini = 0.408<br/>samples = 28<br/>value = [8, 20, 0, 0, 0]<br/>class = 1>, fillcolor="#b0ef88"] ;
292 -> 293 ;
294 [label=<ParentalEducation &le; 0.5<br/>gini = 0.5<br/>samples = 16<br/>value = [8, 8, 0, 0, 0]<br/>class = 0>, fillcolor="#ffffff"] ;
293 -> 294 ;
295 [label=<gini = 0.0<br/>samples = 8<br/>value = [8, 0, 0, 0, 0]<br/>class = 0>, fillcolor="#e58139"] ;
294 -> 295 ;
296 [label=<gini = 0.0<br/>samples = 8<br/>value = [0, 8, 0, 0, 0]<br/>class = 1>, fillcolor="#7be539"] ;
294 -> 296 ;
297 [label=<gini = 0.0<br/>samples = 12<br/>value = [0, 12, 0, 0, 0]<br/>class = 1>, fillcolor="#7be539"] ;
293 -> 297 ;
298 [label=<gini = 0.0<br/>samples = 9<br/>value = [0, 9, 0, 0, 0]<br/>class = 1>, fillcolor="#7be539"] ;
292 -> 298 ;
299 [label=<ParentalEducation &le; 0.5<br/>gini = 0.23<br/>samples = 134<br/>value = [117, 10, 5, 0, 2]<br/>class = 0>, fillcolor="#e99254"] ;
257 -> 299 ;
300 [label=<Tutoring &le; 0.5<br/>gini = 0.279<br/>samples = 74<br/>value = [62, 10, 0, 0, 2]<br/>class = 0>, fillcolor="#ea995e"] ;
299 -> 300 ;
301 [label=<gini = 0.0<br/>samples = 20<br/>value = [20, 0, 0, 0, 0]<br/>class = 0>, fillcolor="#e58139"] ;
300 -> 301 ;
302 [label=<Gender &le; -1.018<br/>gini = 0.359<br/>samples = 54<br/>value = [42, 10, 0, 0, 2]<br/>class = 0>, fillcolor="#eca36f"] ;
300 -> 302 ;
303 [label=<gini = 0.0<br/>samples = 7<br/>value = [0, 7, 0, 0, 0]<br/>class = 1>, fillcolor="#7be539"] ;
302 -> 303 ;
304 [label=<Gender &le; 0.72<br/>gini = 0.196<br/>samples = 47<br/>value = [42.0, 3.0, 0.0, 0.0, 2.0]<br/>class = 0>, fillcolor="#e88f50"] ;
302 -> 304 ;
305 [label=<Sports &le; 0.5<br/>gini = 0.087<br/>samples = 44<br/>value = [42, 0, 0, 0, 2]<br/>class = 0>, fillcolor="#e68742"] ;
304 -> 305 ;
306 [label=<Volunteering &le; 0.5<br/>gini = 0.108<br/>samples = 35<br/>value = [33, 0, 0, 0, 2]<br/>class = 0>, fillcolor="#e78945"] ;
305 -> 306 ;
307 [label=<Gender &le; -0.437<br/>gini = 0.32<br/>samples = 10<br/>value = [8, 0, 0, 0, 2]<br/>class = 0>, fillcolor="#eca06a"] ;
306 -> 307 ;
308 [label=<gini = 0.0<br/>samples = 2<br/>value = [0, 0, 0, 0, 2]<br/>class = 4>, fillcolor="#e539c0"] ;
307 -> 308 ;
309 [label=<gini = 0.0<br/>samples = 8<br/>value = [8, 0, 0, 0, 0]<br/>class = 0>, fillcolor="#e58139"] ;
307 -> 309 ;
310 [label=<gini = 0.0<br/>samples = 25<br/>value = [25, 0, 0, 0, 0]<br/>class = 0>, fillcolor="#e58139"] ;
306 -> 310 ;
311 [label=<gini = 0.0<br/>samples = 9<br/>value = [9, 0, 0, 0, 0]<br/>class = 0>, fillcolor="#e58139"] ;
305 -> 311 ;
312 [label=<gini = 0.0<br/>samples = 3<br/>value = [0, 3, 0, 0, 0]<br/>class = 1>, fillcolor="#7be539"] ;
304 -> 312 ;
313 [label=<Gender &le; -0.783<br/>gini = 0.153<br/>samples = 60<br/>value = [55, 0, 5, 0, 0]<br/>class = 0>, fillcolor="#e78c4b"] ;
299 -> 313 ;
314 [label=<Volunteering &le; 0.5<br/>gini = 0.415<br/>samples = 17<br/>value = [12, 0, 5, 0, 0]<br/>class = 0>, fillcolor="#f0b58b"] ;
313 -> 314 ;
315 [label=<gini = 0.0<br/>samples = 5<br/>value = [0, 0, 5, 0, 0]<br/>class = 2>, fillcolor="#39e5c5"] ;
314 -> 315 ;
316 [label=<gini = 0.0<br/>samples = 12<br/>value = [12, 0, 0, 0, 0]<br/>class = 0>, fillcolor="#e58139"] ;
314 -> 316 ;
317 [label=<gini = 0.0<br/>samples = 43<br/>value = [43, 0, 0, 0, 0]<br/>class = 0>, fillcolor="#e58139"] ;
313 -> 317 ;
318 [label=<Sports &le; 0.5<br/>gini = 0.572<br/>samples = 292<br/>value = [119, 148, 21, 4, 0]<br/>class = 1>, fillcolor="#e9fbde"] ;
256 -> 318 ;
319 [label=<Gender &le; 0.606<br/>gini = 0.563<br/>samples = 156<br/>value = [49, 89, 18, 0, 0]<br/>class = 1>, fillcolor="#cef5b5"] ;
318 -> 319 ;
320 [label=<Volunteering &le; 0.5<br/>gini = 0.466<br/>samples = 106<br/>value = [14, 74, 18, 0, 0]<br/>class = 1>, fillcolor="#abee81"] ;
319 -> 320 ;
321 [label=<Gender &le; -1.74<br/>gini = 0.35<br/>samples = 68<br/>value = [1, 53, 14, 0, 0]<br/>class = 1>, fillcolor="#a0ec70"] ;
320 -> 321 ;
322 [label=<gini = 0.0<br/>samples = 4<br/>value = [0, 0, 4, 0, 0]<br/>class = 2>, fillcolor="#39e5c5"] ;
321 -> 322 ;
323 [label=<Gender &le; 0.553<br/>gini = 0.29<br/>samples = 64<br/>value = [1, 53, 10, 0, 0]<br/>class = 1>, fillcolor="#96ea61"] ;
321 -> 323 ;
324 [label=<Extracurricular &le; 0.5<br/>gini = 0.209<br/>samples = 60<br/>value = [1, 53, 6, 0, 0]<br/>class = 1>, fillcolor="#8ce853"] ;
323 -> 324 ;
325 [label=<gini = 0.0<br/>samples = 3<br/>value = [0, 0, 3, 0, 0]<br/>class = 2>, fillcolor="#39e5c5"] ;
324 -> 325 ;
326 [label=<Tutoring &le; 1.5<br/>gini = 0.132<br/>samples = 57<br/>value = [1, 53, 3, 0, 0]<br/>class = 1>, fillcolor="#85e748"] ;
324 -> 326 ;
327 [label=<Gender &le; -0.978<br/>gini = 0.337<br/>samples = 14<br/>value = [0, 11, 3, 0, 0]<br/>class = 1>, fillcolor="#9fec6f"] ;
326 -> 327 ;
328 [label=<gini = 0.0<br/>samples = 3<br/>value = [0, 0, 3, 0, 0]<br/>class = 2>, fillcolor="#39e5c5"] ;
327 -> 328 ;
329 [label=<gini = 0.0<br/>samples = 11<br/>value = [0, 11, 0, 0, 0]<br/>class = 1>, fillcolor="#7be539"] ;
327 -> 329 ;
330 [label=<Extracurricular &le; 2.5<br/>gini = 0.045<br/>samples = 43<br/>value = [1, 42, 0, 0, 0]<br/>class = 1>, fillcolor="#7ee63e"] ;
326 -> 330 ;
331 [label=<gini = 0.0<br/>samples = 32<br/>value = [0, 32, 0, 0, 0]<br/>class = 1>, fillcolor="#7be539"] ;
330 -> 331 ;
332 [label=<gini = 0.165<br/>samples = 11<br/>value = [1, 10, 0, 0, 0]<br/>class = 1>, fillcolor="#88e84d"] ;
330 -> 332 ;
333 [label=<gini = 0.0<br/>samples = 4<br/>value = [0, 0, 4, 0, 0]<br/>class = 2>, fillcolor="#39e5c5"] ;
323 -> 333 ;
334 [label=<Gender &le; -0.967<br/>gini = 0.566<br/>samples = 38<br/>value = [13.0, 21.0, 4.0, 0.0, 0.0]<br/>class = 1>, fillcolor="#d5f7c0"] ;
320 -> 334 ;
335 [label=<Absences &le; 0.5<br/>gini = 0.188<br/>samples = 19<br/>value = [0, 17, 2, 0, 0]<br/>class = 1>, fillcolor="#8be850"] ;
334 -> 335 ;
336 [label=<gini = 0.0<br/>samples = 14<br/>value = [0, 14, 0, 0, 0]<br/>class = 1>, fillcolor="#7be539"] ;
335 -> 336 ;
337 [label=<StudyTimeWeekly &le; 0.5<br/>gini = 0.48<br/>samples = 5<br/>value = [0, 3, 2, 0, 0]<br/>class = 1>, fillcolor="#d3f6bd"] ;
335 -> 337 ;
338 [label=<gini = 0.0<br/>samples = 3<br/>value = [0, 3, 0, 0, 0]<br/>class = 1>, fillcolor="#7be539"] ;
337 -> 338 ;
339 [label=<gini = 0.0<br/>samples = 2<br/>value = [0, 0, 2, 0, 0]<br/>class = 2>, fillcolor="#39e5c5"] ;
337 -> 339 ;
340 [label=<Absences &le; 0.5<br/>gini = 0.476<br/>samples = 19<br/>value = [13, 4, 2, 0, 0]<br/>class = 0>, fillcolor="#efb388"] ;
334 -> 340 ;
341 [label=<gini = 0.0<br/>samples = 2<br/>value = [0, 0, 2, 0, 0]<br/>class = 2>, fillcolor="#39e5c5"] ;
340 -> 341 ;
342 [label=<ParentalEducation &le; 2.5<br/>gini = 0.36<br/>samples = 17<br/>value = [13, 4, 0, 0, 0]<br/>class = 0>, fillcolor="#eda876"] ;
340 -> 342 ;
343 [label=<gini = 0.0<br/>samples = 13<br/>value = [13, 0, 0, 0, 0]<br/>class = 0>, fillcolor="#e58139"] ;
342 -> 343 ;
344 [label=<gini = 0.0<br/>samples = 4<br/>value = [0, 4, 0, 0, 0]<br/>class = 1>, fillcolor="#7be539"] ;
342 -> 344 ;
345 [label=<Tutoring &le; 0.5<br/>gini = 0.42<br/>samples = 50<br/>value = [35, 15, 0, 0, 0]<br/>class = 0>, fillcolor="#f0b78e"] ;
319 -> 345 ;
346 [label=<gini = 0.0<br/>samples = 5<br/>value = [0, 5, 0, 0, 0]<br/>class = 1>, fillcolor="#7be539"] ;
345 -> 346 ;
347 [label=<StudyTimeWeekly &le; 0.5<br/>gini = 0.346<br/>samples = 45<br/>value = [35, 10, 0, 0, 0]<br/>class = 0>, fillcolor="#eca572"] ;
345 -> 347 ;
348 [label=<Gender &le; 1.545<br/>gini = 0.303<br/>samples = 43<br/>value = [35, 8, 0, 0, 0]<br/>class = 0>, fillcolor="#eb9e66"] ;
347 -> 348 ;
349 [label=<Gender &le; 1.086<br/>gini = 0.25<br/>samples = 41<br/>value = [35, 6, 0, 0, 0]<br/>class = 0>, fillcolor="#e9975b"] ;
348 -> 349 ;
350 [label=<Music &le; 0.5<br/>gini = 0.408<br/>samples = 21<br/>value = [15, 6, 0, 0, 0]<br/>class = 0>, fillcolor="#efb388"] ;
349 -> 350 ;
351 [label=<gini = 0.0<br/>samples = 6<br/>value = [0, 6, 0, 0, 0]<br/>class = 1>, fillcolor="#7be539"] ;
350 -> 351 ;
352 [label=<gini = 0.0<br/>samples = 15<br/>value = [15, 0, 0, 0, 0]<br/>class = 0>, fillcolor="#e58139"] ;
350 -> 352 ;
353 [label=<gini = 0.0<br/>samples = 20<br/>value = [20, 0, 0, 0, 0]<br/>class = 0>, fillcolor="#e58139"] ;
349 -> 353 ;
354 [label=<gini = 0.0<br/>samples = 2<br/>value = [0, 2, 0, 0, 0]<br/>class = 1>, fillcolor="#7be539"] ;
348 -> 354 ;
355 [label=<gini = 0.0<br/>samples = 2<br/>value = [0, 2, 0, 0, 0]<br/>class = 1>, fillcolor="#7be539"] ;
347 -> 355 ;
356 [label=<Absences &le; 0.5<br/>gini = 0.546<br/>samples = 136<br/>value = [70, 59, 3, 4, 0]<br/>class = 0>, fillcolor="#fbede3"] ;
318 -> 356 ;
357 [label=<Music &le; 0.5<br/>gini = 0.561<br/>samples = 55<br/>value = [23.0, 28.0, 0.0, 4.0, 0.0]<br/>class = 1>, fillcolor="#eafbe0"] ;
356 -> 357 ;
358 [label=<StudyTimeWeekly &le; 0.5<br/>gini = 0.572<br/>samples = 47<br/>value = [23, 20, 0, 4, 0]<br/>class = 0>, fillcolor="#fcf1e9"] ;
357 -> 358 ;
359 [label=<Extracurricular &le; 0.5<br/>gini = 0.61<br/>samples = 28<br/>value = [11, 13, 0, 4, 0]<br/>class = 1>, fillcolor="#effce8"] ;
358 -> 359 ;
360 [label=<gini = 0.0<br/>samples = 3<br/>value = [3, 0, 0, 0, 0]<br/>class = 0>, fillcolor="#e58139"] ;
359 -> 360 ;
361 [label=<ParentalEducation &le; 3.5<br/>gini = 0.602<br/>samples = 25<br/>value = [8, 13, 0, 4, 0]<br/>class = 1>, fillcolor="#d8f7c5"] ;
359 -> 361 ;
362 [label=<Extracurricular &le; 2.5<br/>gini = 0.397<br/>samples = 11<br/>value = [8, 3, 0, 0, 0]<br/>class = 0>, fillcolor="#efb083"] ;
361 -> 362 ;
363 [label=<gini = 0.0<br/>samples = 3<br/>value = [0, 3, 0, 0, 0]<br/>class = 1>, fillcolor="#7be539"] ;
362 -> 363 ;
364 [label=<gini = 0.0<br/>samples = 8<br/>value = [8, 0, 0, 0, 0]<br/>class = 0>, fillcolor="#e58139"] ;
362 -> 364 ;
365 [label=<Extracurricular &le; 2.5<br/>gini = 0.408<br/>samples = 14<br/>value = [0, 10, 0, 4, 0]<br/>class = 1>, fillcolor="#b0ef88"] ;
361 -> 365 ;
366 [label=<Gender &le; -0.237<br/>gini = 0.5<br/>samples = 8<br/>value = [0, 4, 0, 4, 0]<br/>class = 1>, fillcolor="#ffffff"] ;
365 -> 366 ;
367 [label=<gini = 0.0<br/>samples = 2<br/>value = [0, 2, 0, 0, 0]<br/>class = 1>, fillcolor="#7be539"] ;
366 -> 367 ;
368 [label=<Tutoring &le; 2.5<br/>gini = 0.444<br/>samples = 6<br/>value = [0, 2, 0, 4, 0]<br/>class = 3>, fillcolor="#9e9cf2"] ;
366 -> 368 ;
369 [label=<gini = 0.0<br/>samples = 2<br/>value = [0, 2, 0, 0, 0]<br/>class = 1>, fillcolor="#7be539"] ;
368 -> 369 ;
370 [label=<gini = 0.0<br/>samples = 4<br/>value = [0, 0, 0, 4, 0]<br/>class = 3>, fillcolor="#3c39e5"] ;
368 -> 370 ;
371 [label=<gini = 0.0<br/>samples = 6<br/>value = [0, 6, 0, 0, 0]<br/>class = 1>, fillcolor="#7be539"] ;
365 -> 371 ;
372 [label=<Extracurricular &le; 2.5<br/>gini = 0.465<br/>samples = 19<br/>value = [12, 7, 0, 0, 0]<br/>class = 0>, fillcolor="#f4caac"] ;
358 -> 372 ;
373 [label=<gini = 0.0<br/>samples = 12<br/>value = [12, 0, 0, 0, 0]<br/>class = 0>, fillcolor="#e58139"] ;
372 -> 373 ;
374 [label=<gini = 0.0<br/>samples = 7<br/>value = [0, 7, 0, 0, 0]<br/>class = 1>, fillcolor="#7be539"] ;
372 -> 374 ;
375 [label=<gini = 0.0<br/>samples = 8<br/>value = [0, 8, 0, 0, 0]<br/>class = 1>, fillcolor="#7be539"] ;
357 -> 375 ;
376 [label=<Gender &le; 0.526<br/>gini = 0.515<br/>samples = 81<br/>value = [47, 31, 3, 0, 0]<br/>class = 0>, fillcolor="#f7d7c0"] ;
356 -> 376 ;
377 [label=<Music &le; 0.5<br/>gini = 0.446<br/>samples = 28<br/>value = [5, 20, 3, 0, 0]<br/>class = 1>, fillcolor="#a9ee7e"] ;
376 -> 377 ;
378 [label=<Extracurricular &le; 3.5<br/>gini = 0.457<br/>samples = 17<br/>value = [2, 12, 3, 0, 0]<br/>class = 1>, fillcolor="#aaee80"] ;
377 -> 378 ;
379 [label=<Tutoring &le; 1.5<br/>gini = 0.32<br/>samples = 15<br/>value = [0, 12, 3, 0, 0]<br/>class = 1>, fillcolor="#9cec6a"] ;
378 -> 379 ;
380 [label=<Extracurricular &le; 2.5<br/>gini = 0.49<br/>samples = 7<br/>value = [0, 4, 3, 0, 0]<br/>class = 1>, fillcolor="#def8ce"] ;
379 -> 380 ;
381 [label=<gini = 0.0<br/>samples = 4<br/>value = [0, 4, 0, 0, 0]<br/>class = 1>, fillcolor="#7be539"] ;
380 -> 381 ;
382 [label=<gini = 0.0<br/>samples = 3<br/>value = [0, 0, 3, 0, 0]<br/>class = 2>, fillcolor="#39e5c5"] ;
380 -> 382 ;
383 [label=<gini = 0.0<br/>samples = 8<br/>value = [0, 8, 0, 0, 0]<br/>class = 1>, fillcolor="#7be539"] ;
379 -> 383 ;
384 [label=<gini = 0.0<br/>samples = 2<br/>value = [2, 0, 0, 0, 0]<br/>class = 0>, fillcolor="#e58139"] ;
378 -> 384 ;
385 [label=<Extracurricular &le; 2.0<br/>gini = 0.397<br/>samples = 11<br/>value = [3, 8, 0, 0, 0]<br/>class = 1>, fillcolor="#acef83"] ;
377 -> 385 ;
386 [label=<gini = 0.0<br/>samples = 4<br/>value = [0, 4, 0, 0, 0]<br/>class = 1>, fillcolor="#7be539"] ;
385 -> 386 ;
387 [label=<Gender &le; -0.667<br/>gini = 0.49<br/>samples = 7<br/>value = [3, 4, 0, 0, 0]<br/>class = 1>, fillcolor="#def8ce"] ;
385 -> 387 ;
388 [label=<gini = 0.0<br/>samples = 4<br/>value = [0, 4, 0, 0, 0]<br/>class = 1>, fillcolor="#7be539"] ;
387 -> 388 ;
389 [label=<gini = 0.0<br/>samples = 3<br/>value = [3, 0, 0, 0, 0]<br/>class = 0>, fillcolor="#e58139"] ;
387 -> 389 ;
390 [label=<Tutoring &le; 1.5<br/>gini = 0.329<br/>samples = 53<br/>value = [42, 11, 0, 0, 0]<br/>class = 0>, fillcolor="#eca26d"] ;
376 -> 390 ;
391 [label=<Music &le; 0.5<br/>gini = 0.473<br/>samples = 13<br/>value = [8, 5, 0, 0, 0]<br/>class = 0>, fillcolor="#f5d0b5"] ;
390 -> 391 ;
392 [label=<gini = 0.0<br/>samples = 5<br/>value = [0, 5, 0, 0, 0]<br/>class = 1>, fillcolor="#7be539"] ;
391 -> 392 ;
393 [label=<gini = 0.0<br/>samples = 8<br/>value = [8, 0, 0, 0, 0]<br/>class = 0>, fillcolor="#e58139"] ;
391 -> 393 ;
394 [label=<StudyTimeWeekly &le; 0.5<br/>gini = 0.255<br/>samples = 40<br/>value = [34, 6, 0, 0, 0]<br/>class = 0>, fillcolor="#ea975c"] ;
390 -> 394 ;
395 [label=<Extracurricular &le; 2.5<br/>gini = 0.469<br/>samples = 16<br/>value = [10, 6, 0, 0, 0]<br/>class = 0>, fillcolor="#f5cdb0"] ;
394 -> 395 ;
396 [label=<gini = 0.0<br/>samples = 6<br/>value = [0, 6, 0, 0, 0]<br/>class = 1>, fillcolor="#7be539"] ;
395 -> 396 ;
397 [label=<gini = 0.0<br/>samples = 10<br/>value = [10, 0, 0, 0, 0]<br/>class = 0>, fillcolor="#e58139"] ;
395 -> 397 ;
398 [label=<gini = 0.0<br/>samples = 24<br/>value = [24, 0, 0, 0, 0]<br/>class = 0>, fillcolor="#e58139"] ;
394 -> 398 ;
399 [label=<Sports &le; 0.5<br/>gini = 0.698<br/>samples = 1177<br/>value = [121, 244, 518, 274, 20]<br/>class = 2>, fillcolor="#c9f8ef"] ;
1 -> 399 ;
400 [label=<Gender &le; -0.11<br/>gini = 0.705<br/>samples = 738<br/>value = [67, 146, 306, 203, 16]<br/>class = 2>, fillcolor="#d9faf4"] ;
399 -> 400 ;
401 [label=<StudyTimeWeekly &le; 0.5<br/>gini = 0.683<br/>samples = 338<br/>value = [27.0, 46.0, 99.0, 153.0, 13.0]<br/>class = 3>, fillcolor="#d3d2f9"] ;
400 -> 401 ;
402 [label=<ParentalSupport &le; 0.5<br/>gini = 0.685<br/>samples = 282<br/>value = [18, 40, 90, 122, 12]<br/>class = 3>, fillcolor="#dedefb"] ;
401 -> 402 ;
403 [label=<Volunteering &le; 0.5<br/>gini = 0.609<br/>samples = 168<br/>value = [11, 10, 41, 95, 11]<br/>class = 3>, fillcolor="#acabf4"] ;
402 -> 403 ;
404 [label=<Extracurricular &le; 3.5<br/>gini = 0.634<br/>samples = 133<br/>value = [11, 10, 34, 71, 7]<br/>class = 3>, fillcolor="#b6b5f5"] ;
403 -> 404 ;
405 [label=<ParentalEducation &le; 5.5<br/>gini = 0.586<br/>samples = 117<br/>value = [11, 5, 24, 70, 7]<br/>class = 3>, fillcolor="#9f9df2"] ;
404 -> 405 ;
406 [label=<Extracurricular &le; 2.5<br/>gini = 0.622<br/>samples = 24<br/>value = [9, 0, 11, 4, 0]<br/>class = 2>, fillcolor="#e5fcf7"] ;
405 -> 406 ;
407 [label=<Music &le; 0.5<br/>gini = 0.153<br/>samples = 12<br/>value = [0, 0, 11, 1, 0]<br/>class = 2>, fillcolor="#4be7ca"] ;
406 -> 407 ;
408 [label=<Absences &le; 0.5<br/>gini = 0.18<br/>samples = 10<br/>value = [0, 0, 9, 1, 0]<br/>class = 2>, fillcolor="#4fe8cb"] ;
407 -> 408 ;
409 [label=<gini = 0.5<br/>samples = 2<br/>value = [0, 0, 1, 1, 0]<br/>class = 2>, fillcolor="#ffffff"] ;
408 -> 409 ;
410 [label=<gini = 0.0<br/>samples = 8<br/>value = [0, 0, 8, 0, 0]<br/>class = 2>, fillcolor="#39e5c5"] ;
408 -> 410 ;
411 [label=<gini = 0.0<br/>samples = 2<br/>value = [0, 0, 2, 0, 0]<br/>class = 2>, fillcolor="#39e5c5"] ;
407 -> 411 ;
412 [label=<Gender &le; -0.812<br/>gini = 0.375<br/>samples = 12<br/>value = [9, 0, 0, 3, 0]<br/>class = 0>, fillcolor="#eeab7b"] ;
406 -> 412 ;
413 [label=<gini = 0.0<br/>samples = 3<br/>value = [0, 0, 0, 3, 0]<br/>class = 3>, fillcolor="#3c39e5"] ;
412 -> 413 ;
414 [label=<gini = 0.0<br/>samples = 9<br/>value = [9, 0, 0, 0, 0]<br/>class = 0>, fillcolor="#e58139"] ;
412 -> 414 ;
415 [label=<ParentalEducation &le; 8.5<br/>gini = 0.468<br/>samples = 93<br/>value = [2.0, 5.0, 13.0, 66.0, 7.0]<br/>class = 3>, fillcolor="#7e7cee"] ;
405 -> 415 ;
416 [label=<Absences &le; 0.5<br/>gini = 0.338<br/>samples = 61<br/>value = [2, 0, 7, 49, 3]<br/>class = 3>, fillcolor="#6765eb"] ;
415 -> 416 ;
417 [label=<Extracurricular &le; 2.5<br/>gini = 0.42<br/>samples = 38<br/>value = [2, 0, 7, 28, 1]<br/>class = 3>, fillcolor="#7b79ed"] ;
416 -> 417 ;
418 [label=<Tutoring &le; 1.5<br/>gini = 0.338<br/>samples = 30<br/>value = [2, 0, 4, 24, 0]<br/>class = 3>, fillcolor="#6967eb"] ;
417 -> 418 ;
419 [label=<gini = 0.0<br/>samples = 12<br/>value = [0, 0, 0, 12, 0]<br/>class = 3>, fillcolor="#3c39e5"] ;
418 -> 419 ;
420 [label=<ParentalEducation &le; 6.5<br/>gini = 0.494<br/>samples = 18<br/>value = [2, 0, 4, 12, 0]<br/>class = 3>, fillcolor="#908ef0"] ;
418 -> 420 ;
421 [label=<gini = 0.375<br/>samples = 4<br/>value = [0, 0, 3, 1, 0]<br/>class = 2>, fillcolor="#7beed8"] ;
420 -> 421 ;
422 [label=<Gender &le; -0.862<br/>gini = 0.357<br/>samples = 14<br/>value = [2, 0, 1, 11, 0]<br/>class = 3>, fillcolor="#6d6bec"] ;
420 -> 422 ;
423 [label=<gini = 0.0<br/>samples = 5<br/>value = [0, 0, 0, 5, 0]<br/>class = 3>, fillcolor="#3c39e5"] ;
422 -> 423 ;
424 [label=<gini = 0.494<br/>samples = 9<br/>value = [2, 0, 1, 6, 0]<br/>class = 3>, fillcolor="#908ef0"] ;
422 -> 424 ;
425 [label=<Music &le; 0.5<br/>gini = 0.594<br/>samples = 8<br/>value = [0, 0, 3, 4, 1]<br/>class = 3>, fillcolor="#d8d7fa"] ;
417 -> 425 ;
426 [label=<Gender &le; -0.93<br/>gini = 0.611<br/>samples = 6<br/>value = [0, 0, 3, 2, 1]<br/>class = 2>, fillcolor="#cef8f0"] ;
425 -> 426 ;
427 [label=<gini = 0.5<br/>samples = 2<br/>value = [0, 0, 0, 1, 1]<br/>class = 3>, fillcolor="#ffffff"] ;
426 -> 427 ;
428 [label=<gini = 0.375<br/>samples = 4<br/>value = [0, 0, 3, 1, 0]<br/>class = 2>, fillcolor="#7beed8"] ;
426 -> 428 ;
429 [label=<gini = 0.0<br/>samples = 2<br/>value = [0, 0, 0, 2, 0]<br/>class = 3>, fillcolor="#3c39e5"] ;
425 -> 429 ;
430 [label=<Music &le; 0.5<br/>gini = 0.159<br/>samples = 23<br/>value = [0, 0, 0, 21, 2]<br/>class = 3>, fillcolor="#4f4ce7"] ;
416 -> 430 ;
431 [label=<Gender &le; -1.541<br/>gini = 0.124<br/>samples = 15<br/>value = [0, 0, 0, 14, 1]<br/>class = 3>, fillcolor="#4a47e7"] ;
430 -> 431 ;
432 [label=<gini = 0.5<br/>samples = 2<br/>value = [0, 0, 0, 1, 1]<br/>class = 3>, fillcolor="#ffffff"] ;
431 -> 432 ;
433 [label=<gini = 0.0<br/>samples = 13<br/>value = [0, 0, 0, 13, 0]<br/>class = 3>, fillcolor="#3c39e5"] ;
431 -> 433 ;
434 [label=<Tutoring &le; 1.5<br/>gini = 0.219<br/>samples = 8<br/>value = [0, 0, 0, 7, 1]<br/>class = 3>, fillcolor="#5855e9"] ;
430 -> 434 ;
435 [label=<Extracurricular &le; 1.5<br/>gini = 0.278<br/>samples = 6<br/>value = [0, 0, 0, 5, 1]<br/>class = 3>, fillcolor="#6361ea"] ;
434 -> 435 ;
436 [label=<gini = 0.375<br/>samples = 4<br/>value = [0, 0, 0, 3, 1]<br/>class = 3>, fillcolor="#7d7bee"] ;
435 -> 436 ;
437 [label=<gini = 0.0<br/>samples = 2<br/>value = [0, 0, 0, 2, 0]<br/>class = 3>, fillcolor="#3c39e5"] ;
435 -> 437 ;
438 [label=<gini = 0.0<br/>samples = 2<br/>value = [0, 0, 0, 2, 0]<br/>class = 3>, fillcolor="#3c39e5"] ;
434 -> 438 ;
439 [label=<Gender &le; -1.674<br/>gini = 0.643<br/>samples = 32<br/>value = [0, 5, 6, 17, 4]<br/>class = 3>, fillcolor="#acabf4"] ;
415 -> 439 ;
440 [label=<gini = 0.0<br/>samples = 2<br/>value = [0, 0, 0, 0, 2]<br/>class = 4>, fillcolor="#e539c0"] ;
439 -> 440 ;
441 [label=<Gender &le; -0.843<br/>gini = 0.607<br/>samples = 30<br/>value = [0, 5, 6, 17, 2]<br/>class = 3>, fillcolor="#a6a4f3"] ;
439 -> 441 ;
442 [label=<Gender &le; -1.401<br/>gini = 0.625<br/>samples = 12<br/>value = [0, 5, 2, 5, 0]<br/>class = 1>, fillcolor="#ffffff"] ;
441 -> 442 ;
443 [label=<gini = 0.0<br/>samples = 5<br/>value = [0, 0, 0, 5, 0]<br/>class = 3>, fillcolor="#3c39e5"] ;
442 -> 443 ;
444 [label=<Gender &le; -1.122<br/>gini = 0.408<br/>samples = 7<br/>value = [0, 5, 2, 0, 0]<br/>class = 1>, fillcolor="#b0ef88"] ;
442 -> 444 ;
445 [label=<gini = 0.0<br/>samples = 2<br/>value = [0, 0, 2, 0, 0]<br/>class = 2>, fillcolor="#39e5c5"] ;
444 -> 445 ;
446 [label=<gini = 0.0<br/>samples = 5<br/>value = [0, 5, 0, 0, 0]<br/>class = 1>, fillcolor="#7be539"] ;
444 -> 446 ;
447 [label=<Music &le; 0.5<br/>gini = 0.494<br/>samples = 18<br/>value = [0, 0, 4, 12, 2]<br/>class = 3>, fillcolor="#908ef0"] ;
441 -> 447 ;
448 [label=<Gender &le; -0.138<br/>gini = 0.571<br/>samples = 14<br/>value = [0, 0, 4, 8, 2]<br/>class = 3>, fillcolor="#b1b0f5"] ;
447 -> 448 ;
449 [label=<Extracurricular &le; 1.5<br/>gini = 0.64<br/>samples = 10<br/>value = [0, 0, 4, 4, 2]<br/>class = 2>, fillcolor="#ffffff"] ;
448 -> 449 ;
450 [label=<gini = 0.5<br/>samples = 2<br/>value = [0, 0, 0, 1, 1]<br/>class = 3>, fillcolor="#ffffff"] ;
449 -> 450 ;
451 [label=<gini = 0.594<br/>samples = 8<br/>value = [0, 0, 4, 3, 1]<br/>class = 2>, fillcolor="#d7faf3"] ;
449 -> 451 ;
452 [label=<gini = 0.0<br/>samples = 4<br/>value = [0, 0, 0, 4, 0]<br/>class = 3>, fillcolor="#3c39e5"] ;
448 -> 452 ;
453 [label=<gini = 0.0<br/>samples = 4<br/>value = [0, 0, 0, 4, 0]<br/>class = 3>, fillcolor="#3c39e5"] ;
447 -> 453 ;
454 [label=<Gender &le; -1.066<br/>gini = 0.508<br/>samples = 16<br/>value = [0, 5, 10, 1, 0]<br/>class = 2>, fillcolor="#a5f3e5"] ;
404 -> 454 ;
455 [label=<Music &le; 0.5<br/>gini = 0.531<br/>samples = 8<br/>value = [0, 5, 2, 1, 0]<br/>class = 1>, fillcolor="#bdf29c"] ;
454 -> 455 ;
456 [label=<Gender &le; -1.19<br/>gini = 0.611<br/>samples = 6<br/>value = [0, 3, 2, 1, 0]<br/>class = 1>, fillcolor="#def8ce"] ;
455 -> 456 ;
457 [label=<gini = 0.444<br/>samples = 3<br/>value = [0, 0, 2, 1, 0]<br/>class = 2>, fillcolor="#9cf2e2"] ;
456 -> 457 ;
458 [label=<gini = 0.0<br/>samples = 3<br/>value = [0, 3, 0, 0, 0]<br/>class = 1>, fillcolor="#7be539"] ;
456 -> 458 ;
459 [label=<gini = 0.0<br/>samples = 2<br/>value = [0, 2, 0, 0, 0]<br/>class = 1>, fillcolor="#7be539"] ;
455 -> 459 ;
460 [label=<gini = 0.0<br/>samples = 8<br/>value = [0, 0, 8, 0, 0]<br/>class = 2>, fillcolor="#39e5c5"] ;
454 -> 460 ;
461 [label=<Gender &le; -1.415<br/>gini = 0.477<br/>samples = 35<br/>value = [0, 0, 7, 24, 4]<br/>class = 3>, fillcolor="#8987ef"] ;
403 -> 461 ;
462 [label=<gini = 0.0<br/>samples = 12<br/>value = [0, 0, 0, 12, 0]<br/>class = 3>, fillcolor="#3c39e5"] ;
461 -> 462 ;
463 [label=<Absences &le; 0.5<br/>gini = 0.605<br/>samples = 23<br/>value = [0, 0, 7, 12, 4]<br/>class = 3>, fillcolor="#c2c1f7"] ;
461 -> 463 ;
464 [label=<ParentalEducation &le; 6.0<br/>gini = 0.612<br/>samples = 7<br/>value = [0, 0, 3, 3, 1]<br/>class = 2>, fillcolor="#ffffff"] ;
463 -> 464 ;
465 [label=<gini = 0.0<br/>samples = 3<br/>value = [0, 0, 0, 3, 0]<br/>class = 3>, fillcolor="#3c39e5"] ;
464 -> 465 ;
466 [label=<gini = 0.375<br/>samples = 4<br/>value = [0, 0, 3, 0, 1]<br/>class = 2>, fillcolor="#7beed8"] ;
464 -> 466 ;
467 [label=<Gender &le; -1.084<br/>gini = 0.586<br/>samples = 16<br/>value = [0, 0, 4, 9, 3]<br/>class = 3>, fillcolor="#aeacf4"] ;
463 -> 467 ;
468 [label=<Gender &le; -1.262<br/>gini = 0.49<br/>samples = 7<br/>value = [0, 0, 4, 0, 3]<br/>class = 2>, fillcolor="#cef8f0"] ;
467 -> 468 ;
469 [label=<gini = 0.0<br/>samples = 4<br/>value = [0, 0, 4, 0, 0]<br/>class = 2>, fillcolor="#39e5c5"] ;
468 -> 469 ;
470 [label=<gini = 0.0<br/>samples = 3<br/>value = [0, 0, 0, 0, 3]<br/>class = 4>, fillcolor="#e539c0"] ;
468 -> 470 ;
471 [label=<gini = 0.0<br/>samples = 9<br/>value = [0, 0, 0, 9, 0]<br/>class = 3>, fillcolor="#3c39e5"] ;
467 -> 471 ;
472 [label=<Extracurricular &le; 3.5<br/>gini = 0.686<br/>samples = 114<br/>value = [7, 30, 49, 27, 1]<br/>class = 2>, fillcolor="#d2f9f2"] ;
402 -> 472 ;
473 [label=<Tutoring &le; 2.5<br/>gini = 0.672<br/>samples = 105<br/>value = [7, 22, 49, 26, 1]<br/>class = 2>, fillcolor="#c5f7ee"] ;
472 -> 473 ;
474 [label=<Tutoring &le; 1.5<br/>gini = 0.623<br/>samples = 82<br/>value = [0, 16, 40, 26, 0]<br/>class = 2>, fillcolor="#cef8f0"] ;
473 -> 474 ;
475 [label=<Extracurricular &le; 1.5<br/>gini = 0.655<br/>samples = 53<br/>value = [0, 14, 22, 17, 0]<br/>class = 2>, fillcolor="#e3fbf7"] ;
474 -> 475 ;
476 [label=<Music &le; 0.5<br/>gini = 0.469<br/>samples = 16<br/>value = [0, 0, 6, 10, 0]<br/>class = 3>, fillcolor="#b1b0f5"] ;
475 -> 476 ;
477 [label=<ParentalEducation &le; 6.0<br/>gini = 0.278<br/>samples = 12<br/>value = [0, 0, 2, 10, 0]<br/>class = 3>, fillcolor="#6361ea"] ;
476 -> 477 ;
478 [label=<gini = 0.444<br/>samples = 3<br/>value = [0, 0, 2, 1, 0]<br/>class = 2>, fillcolor="#9cf2e2"] ;
477 -> 478 ;
479 [label=<gini = 0.0<br/>samples = 9<br/>value = [0, 0, 0, 9, 0]<br/>class = 3>, fillcolor="#3c39e5"] ;
477 -> 479 ;
480 [label=<gini = 0.0<br/>samples = 4<br/>value = [0, 0, 4, 0, 0]<br/>class = 2>, fillcolor="#39e5c5"] ;
476 -> 480 ;
481 [label=<Gender &le; -0.6<br/>gini = 0.634<br/>samples = 37<br/>value = [0, 14, 16, 7, 0]<br/>class = 2>, fillcolor="#eefdfa"] ;
475 -> 481 ;
482 [label=<Tutoring &le; 0.5<br/>gini = 0.32<br/>samples = 15<br/>value = [0, 0, 12, 3, 0]<br/>class = 2>, fillcolor="#6aecd4"] ;
481 -> 482 ;
483 [label=<Gender &le; -0.89<br/>gini = 0.48<br/>samples = 5<br/>value = [0, 0, 2, 3, 0]<br/>class = 3>, fillcolor="#bebdf6"] ;
482 -> 483 ;
484 [label=<gini = 0.444<br/>samples = 3<br/>value = [0, 0, 2, 1, 0]<br/>class = 2>, fillcolor="#9cf2e2"] ;
483 -> 484 ;
485 [label=<gini = 0.0<br/>samples = 2<br/>value = [0, 0, 0, 2, 0]<br/>class = 3>, fillcolor="#3c39e5"] ;
483 -> 485 ;
486 [label=<gini = 0.0<br/>samples = 10<br/>value = [0, 0, 10, 0, 0]<br/>class = 2>, fillcolor="#39e5c5"] ;
482 -> 486 ;
487 [label=<ParentalEducation &le; 7.5<br/>gini = 0.529<br/>samples = 22<br/>value = [0, 14, 4, 4, 0]<br/>class = 1>, fillcolor="#b6f191"] ;
481 -> 487 ;
488 [label=<gini = 0.0<br/>samples = 14<br/>value = [0, 14, 0, 0, 0]<br/>class = 1>, fillcolor="#7be539"] ;
487 -> 488 ;
489 [label=<ParentalEducation &le; 9.0<br/>gini = 0.5<br/>samples = 8<br/>value = [0, 0, 4, 4, 0]<br/>class = 2>, fillcolor="#ffffff"] ;
487 -> 489 ;
490 [label=<gini = 0.0<br/>samples = 4<br/>value = [0, 0, 4, 0, 0]<br/>class = 2>, fillcolor="#39e5c5"] ;
489 -> 490 ;
491 [label=<gini = 0.0<br/>samples = 4<br/>value = [0, 0, 0, 4, 0]<br/>class = 3>, fillcolor="#3c39e5"] ;
489 -> 491 ;
492 [label=<ParentalEducation &le; 7.5<br/>gini = 0.514<br/>samples = 29<br/>value = [0, 2, 18, 9, 0]<br/>class = 2>, fillcolor="#a6f3e5"] ;
474 -> 492 ;
493 [label=<ParentalEducation &le; 5.5<br/>gini = 0.18<br/>samples = 20<br/>value = [0, 2, 18, 0, 0]<br/>class = 2>, fillcolor="#4fe8cb"] ;
492 -> 493 ;
494 [label=<Gender &le; -0.222<br/>gini = 0.408<br/>samples = 7<br/>value = [0, 2, 5, 0, 0]<br/>class = 2>, fillcolor="#88efdc"] ;
493 -> 494 ;
495 [label=<gini = 0.0<br/>samples = 5<br/>value = [0, 0, 5, 0, 0]<br/>class = 2>, fillcolor="#39e5c5"] ;
494 -> 495 ;
496 [label=<gini = 0.0<br/>samples = 2<br/>value = [0, 2, 0, 0, 0]<br/>class = 1>, fillcolor="#7be539"] ;
494 -> 496 ;
497 [label=<gini = 0.0<br/>samples = 13<br/>value = [0, 0, 13, 0, 0]<br/>class = 2>, fillcolor="#39e5c5"] ;
493 -> 497 ;
498 [label=<gini = 0.0<br/>samples = 9<br/>value = [0, 0, 0, 9, 0]<br/>class = 3>, fillcolor="#3c39e5"] ;
492 -> 498 ;
499 [label=<Absences &le; 0.5<br/>gini = 0.684<br/>samples = 23<br/>value = [7, 6, 9, 0, 1]<br/>class = 2>, fillcolor="#e6fcf8"] ;
473 -> 499 ;
500 [label=<Gender &le; -1.203<br/>gini = 0.561<br/>samples = 14<br/>value = [7, 6, 0, 0, 1]<br/>class = 0>, fillcolor="#fcefe6"] ;
499 -> 500 ;
501 [label=<gini = 0.0<br/>samples = 7<br/>value = [7, 0, 0, 0, 0]<br/>class = 0>, fillcolor="#e58139"] ;
500 -> 501 ;
502 [label=<gini = 0.245<br/>samples = 7<br/>value = [0, 6, 0, 0, 1]<br/>class = 1>, fillcolor="#91e95a"] ;
500 -> 502 ;
503 [label=<gini = 0.0<br/>samples = 9<br/>value = [0, 0, 9, 0, 0]<br/>class = 2>, fillcolor="#39e5c5"] ;
499 -> 503 ;
504 [label=<Absences &le; 0.5<br/>gini = 0.198<br/>samples = 9<br/>value = [0, 8, 0, 1, 0]<br/>class = 1>, fillcolor="#8ce852"] ;
472 -> 504 ;
505 [label=<gini = 0.375<br/>samples = 4<br/>value = [0, 3, 0, 1, 0]<br/>class = 1>, fillcolor="#a7ee7b"] ;
504 -> 505 ;
506 [label=<gini = 0.0<br/>samples = 5<br/>value = [0, 5, 0, 0, 0]<br/>class = 1>, fillcolor="#7be539"] ;
504 -> 506 ;
507 [label=<ParentalEducation &le; 7.5<br/>gini = 0.63<br/>samples = 56<br/>value = [9, 6, 9, 31, 1]<br/>class = 3>, fillcolor="#a4a2f3"] ;
401 -> 507 ;
508 [label=<ParentalEducation &le; 5.5<br/>gini = 0.632<br/>samples = 19<br/>value = [0, 6, 9, 4, 0]<br/>class = 2>, fillcolor="#d1f9f2"] ;
507 -> 508 ;
509 [label=<gini = 0.562<br/>samples = 11<br/>value = [0, 6, 1, 4, 0]<br/>class = 1>, fillcolor="#d9f8c6"] ;
508 -> 509 ;
510 [label=<gini = 0.0<br/>samples = 8<br/>value = [0, 0, 8, 0, 0]<br/>class = 2>, fillcolor="#39e5c5"] ;
508 -> 510 ;
511 [label=<Extracurricular &le; 3.5<br/>gini = 0.408<br/>samples = 37<br/>value = [9, 0, 0, 27, 1]<br/>class = 3>, fillcolor="#8280ee"] ;
507 -> 511 ;
512 [label=<Extracurricular &le; 2.5<br/>gini = 0.069<br/>samples = 28<br/>value = [0, 0, 0, 27, 1]<br/>class = 3>, fillcolor="#4340e6"] ;
511 -> 512 ;
513 [label=<Gender &le; -1.72<br/>gini = 0.153<br/>samples = 12<br/>value = [0, 0, 0, 11, 1]<br/>class = 3>, fillcolor="#4e4be7"] ;
512 -> 513 ;
514 [label=<gini = 0.32<br/>samples = 5<br/>value = [0, 0, 0, 4, 1]<br/>class = 3>, fillcolor="#6d6aec"] ;
513 -> 514 ;
515 [label=<gini = 0.0<br/>samples = 7<br/>value = [0, 0, 0, 7, 0]<br/>class = 3>, fillcolor="#3c39e5"] ;
513 -> 515 ;
516 [label=<gini = 0.0<br/>samples = 16<br/>value = [0, 0, 0, 16, 0]<br/>class = 3>, fillcolor="#3c39e5"] ;
512 -> 516 ;
517 [label=<gini = 0.0<br/>samples = 9<br/>value = [9, 0, 0, 0, 0]<br/>class = 0>, fillcolor="#e58139"] ;
511 -> 517 ;
518 [label=<Gender &le; 0.698<br/>gini = 0.644<br/>samples = 400<br/>value = [40.0, 100.0, 207.0, 50.0, 3.0]<br/>class = 2>, fillcolor="#b8f6ea"] ;
400 -> 518 ;
519 [label=<Gender &le; 0.477<br/>gini = 0.566<br/>samples = 163<br/>value = [13, 16, 101, 30, 3]<br/>class = 2>, fillcolor="#95f1e0"] ;
518 -> 519 ;
520 [label=<Tutoring &le; 0.5<br/>gini = 0.633<br/>samples = 130<br/>value = [13, 15, 70, 30, 2]<br/>class = 2>, fillcolor="#b0f5e8"] ;
519 -> 520 ;
521 [label=<ParentalEducation &le; 7.5<br/>gini = 0.657<br/>samples = 17<br/>value = [7, 5, 5, 0, 0]<br/>class = 0>, fillcolor="#fbeade"] ;
520 -> 521 ;
522 [label=<Extracurricular &le; 3.5<br/>gini = 0.486<br/>samples = 12<br/>value = [7, 5, 0, 0, 0]<br/>class = 0>, fillcolor="#f8dbc6"] ;
521 -> 522 ;
523 [label=<gini = 0.0<br/>samples = 7<br/>value = [7, 0, 0, 0, 0]<br/>class = 0>, fillcolor="#e58139"] ;
522 -> 523 ;
524 [label=<gini = 0.0<br/>samples = 5<br/>value = [0, 5, 0, 0, 0]<br/>class = 1>, fillcolor="#7be539"] ;
522 -> 524 ;
525 [label=<gini = 0.0<br/>samples = 5<br/>value = [0, 0, 5, 0, 0]<br/>class = 2>, fillcolor="#39e5c5"] ;
521 -> 525 ;
526 [label=<ParentalSupport &le; 0.5<br/>gini = 0.588<br/>samples = 113<br/>value = [6.0, 10.0, 65.0, 30.0, 2.0]<br/>class = 2>, fillcolor="#acf4e7"] ;
520 -> 526 ;
527 [label=<Extracurricular &le; 1.5<br/>gini = 0.511<br/>samples = 86<br/>value = [6.0, 1.0, 56.0, 21.0, 2.0]<br/>class = 2>, fillcolor="#94f1e0"] ;
526 -> 527 ;
528 [label=<Tutoring &le; 2.5<br/>gini = 0.58<br/>samples = 20<br/>value = [0, 0, 8, 10, 2]<br/>class = 3>, fillcolor="#dedefb"] ;
527 -> 528 ;
529 [label=<ParentalEducation &le; 8.5<br/>gini = 0.594<br/>samples = 16<br/>value = [0, 0, 8, 6, 2]<br/>class = 2>, fillcolor="#d7faf3"] ;
528 -> 529 ;
530 [label=<Extracurricular &le; 0.5<br/>gini = 0.49<br/>samples = 14<br/>value = [0, 0, 8, 6, 0]<br/>class = 2>, fillcolor="#cef8f0"] ;
529 -> 530 ;
531 [label=<gini = 0.0<br/>samples = 3<br/>value = [0, 0, 0, 3, 0]<br/>class = 3>, fillcolor="#3c39e5"] ;
530 -> 531 ;
532 [label=<Tutoring &le; 1.5<br/>gini = 0.397<br/>samples = 11<br/>value = [0, 0, 8, 3, 0]<br/>class = 2>, fillcolor="#83efdb"] ;
530 -> 532 ;
533 [label=<gini = 0.444<br/>samples = 3<br/>value = [0, 0, 2, 1, 0]<br/>class = 2>, fillcolor="#9cf2e2"] ;
532 -> 533 ;
534 [label=<Gender &le; 0.228<br/>gini = 0.375<br/>samples = 8<br/>value = [0, 0, 6, 2, 0]<br/>class = 2>, fillcolor="#7beed8"] ;
532 -> 534 ;
535 [label=<gini = 0.0<br/>samples = 6<br/>value = [0, 0, 6, 0, 0]<br/>class = 2>, fillcolor="#39e5c5"] ;
534 -> 535 ;
536 [label=<gini = 0.0<br/>samples = 2<br/>value = [0, 0, 0, 2, 0]<br/>class = 3>, fillcolor="#3c39e5"] ;
534 -> 536 ;
537 [label=<gini = 0.0<br/>samples = 2<br/>value = [0, 0, 0, 0, 2]<br/>class = 4>, fillcolor="#e539c0"] ;
529 -> 537 ;
538 [label=<gini = 0.0<br/>samples = 4<br/>value = [0, 0, 0, 4, 0]<br/>class = 3>, fillcolor="#3c39e5"] ;
528 -> 538 ;
539 [label=<ParentalEducation &le; 8.5<br/>gini = 0.435<br/>samples = 66<br/>value = [6, 1, 48, 11, 0]<br/>class = 2>, fillcolor="#7aeed8"] ;
527 -> 539 ;
540 [label=<Gender &le; 0.015<br/>gini = 0.156<br/>samples = 47<br/>value = [0, 0, 43, 4, 0]<br/>class = 2>, fillcolor="#4be7ca"] ;
539 -> 540 ;
541 [label=<gini = 0.0<br/>samples = 17<br/>value = [0, 0, 17, 0, 0]<br/>class = 2>, fillcolor="#39e5c5"] ;
540 -> 541 ;
542 [label=<Gender &le; 0.051<br/>gini = 0.231<br/>samples = 30<br/>value = [0, 0, 26, 4, 0]<br/>class = 2>, fillcolor="#57e9ce"] ;
540 -> 542 ;
543 [label=<gini = 0.0<br/>samples = 2<br/>value = [0, 0, 0, 2, 0]<br/>class = 3>, fillcolor="#3c39e5"] ;
542 -> 543 ;
544 [label=<Gender &le; 0.26<br/>gini = 0.133<br/>samples = 28<br/>value = [0, 0, 26, 2, 0]<br/>class = 2>, fillcolor="#48e7c9"] ;
542 -> 544 ;
545 [label=<gini = 0.0<br/>samples = 13<br/>value = [0, 0, 13, 0, 0]<br/>class = 2>, fillcolor="#39e5c5"] ;
544 -> 545 ;
546 [label=<Volunteering &le; 0.5<br/>gini = 0.231<br/>samples = 15<br/>value = [0, 0, 13, 2, 0]<br/>class = 2>, fillcolor="#57e9ce"] ;
544 -> 546 ;
547 [label=<gini = 0.0<br/>samples = 10<br/>value = [0, 0, 10, 0, 0]<br/>class = 2>, fillcolor="#39e5c5"] ;
546 -> 547 ;
548 [label=<Extracurricular &le; 2.5<br/>gini = 0.48<br/>samples = 5<br/>value = [0, 0, 3, 2, 0]<br/>class = 2>, fillcolor="#bdf6ec"] ;
546 -> 548 ;
549 [label=<gini = 0.0<br/>samples = 3<br/>value = [0, 0, 3, 0, 0]<br/>class = 2>, fillcolor="#39e5c5"] ;
548 -> 549 ;
550 [label=<gini = 0.0<br/>samples = 2<br/>value = [0, 0, 0, 2, 0]<br/>class = 3>, fillcolor="#3c39e5"] ;
548 -> 550 ;
551 [label=<Absences &le; 0.5<br/>gini = 0.693<br/>samples = 19<br/>value = [6, 1, 5, 7, 0]<br/>class = 3>, fillcolor="#f0f0fd"] ;
539 -> 551 ;
552 [label=<Gender &le; 0.241<br/>gini = 0.245<br/>samples = 7<br/>value = [0, 0, 1, 6, 0]<br/>class = 3>, fillcolor="#5d5ae9"] ;
551 -> 552 ;
553 [label=<gini = 0.0<br/>samples = 3<br/>value = [0, 0, 0, 3, 0]<br/>class = 3>, fillcolor="#3c39e5"] ;
552 -> 553 ;
554 [label=<gini = 0.375<br/>samples = 4<br/>value = [0, 0, 1, 3, 0]<br/>class = 3>, fillcolor="#7d7bee"] ;
552 -> 554 ;
555 [label=<Extracurricular &le; 2.5<br/>gini = 0.625<br/>samples = 12<br/>value = [6, 1, 4, 1, 0]<br/>class = 0>, fillcolor="#f8e0ce"] ;
551 -> 555 ;
556 [label=<gini = 0.406<br/>samples = 8<br/>value = [6, 1, 0, 1, 0]<br/>class = 0>, fillcolor="#eca572"] ;
555 -> 556 ;
557 [label=<gini = 0.0<br/>samples = 4<br/>value = [0, 0, 4, 0, 0]<br/>class = 2>, fillcolor="#39e5c5"] ;
555 -> 557 ;
558 [label=<Gender &le; 0.165<br/>gini = 0.667<br/>samples = 27<br/>value = [0, 9, 9, 9, 0]<br/>class = 1>, fillcolor="#ffffff"] ;
526 -> 558 ;
559 [label=<Gender &le; 0.104<br/>gini = 0.245<br/>samples = 7<br/>value = [0, 0, 1, 6, 0]<br/>class = 3>, fillcolor="#5d5ae9"] ;
558 -> 559 ;
560 [label=<gini = 0.5<br/>samples = 2<br/>value = [0, 0, 1, 1, 0]<br/>class = 2>, fillcolor="#ffffff"] ;
559 -> 560 ;
561 [label=<gini = 0.0<br/>samples = 5<br/>value = [0, 0, 0, 5, 0]<br/>class = 3>, fillcolor="#3c39e5"] ;
559 -> 561 ;
562 [label=<Gender &le; 0.394<br/>gini = 0.615<br/>samples = 20<br/>value = [0, 9, 8, 3, 0]<br/>class = 1>, fillcolor="#f4fdef"] ;
558 -> 562 ;
563 [label=<Volunteering &le; 0.5<br/>gini = 0.49<br/>samples = 14<br/>value = [0, 6, 8, 0, 0]<br/>class = 2>, fillcolor="#cef8f0"] ;
562 -> 563 ;
564 [label=<Tutoring &le; 1.5<br/>gini = 0.444<br/>samples = 9<br/>value = [0, 6, 3, 0, 0]<br/>class = 1>, fillcolor="#bdf29c"] ;
563 -> 564 ;
565 [label=<gini = 0.0<br/>samples = 3<br/>value = [0, 0, 3, 0, 0]<br/>class = 2>, fillcolor="#39e5c5"] ;
564 -> 565 ;
566 [label=<gini = 0.0<br/>samples = 6<br/>value = [0, 6, 0, 0, 0]<br/>class = 1>, fillcolor="#7be539"] ;
564 -> 566 ;
567 [label=<gini = 0.0<br/>samples = 5<br/>value = [0, 0, 5, 0, 0]<br/>class = 2>, fillcolor="#39e5c5"] ;
563 -> 567 ;
568 [label=<Volunteering &le; 0.5<br/>gini = 0.5<br/>samples = 6<br/>value = [0, 3, 0, 3, 0]<br/>class = 1>, fillcolor="#ffffff"] ;
562 -> 568 ;
569 [label=<gini = 0.0<br/>samples = 3<br/>value = [0, 0, 0, 3, 0]<br/>class = 3>, fillcolor="#3c39e5"] ;
568 -> 569 ;
570 [label=<gini = 0.0<br/>samples = 3<br/>value = [0, 3, 0, 0, 0]<br/>class = 1>, fillcolor="#7be539"] ;
568 -> 570 ;
571 [label=<Absences &le; 0.5<br/>gini = 0.116<br/>samples = 33<br/>value = [0, 1, 31, 0, 1]<br/>class = 2>, fillcolor="#45e7c9"] ;
519 -> 571 ;
572 [label=<Extracurricular &le; 3.5<br/>gini = 0.24<br/>samples = 15<br/>value = [0, 1, 13, 0, 1]<br/>class = 2>, fillcolor="#55e9cd"] ;
571 -> 572 ;
573 [label=<ParentalEducation &le; 7.5<br/>gini = 0.142<br/>samples = 13<br/>value = [0, 0, 12, 0, 1]<br/>class = 2>, fillcolor="#49e7ca"] ;
572 -> 573 ;
574 [label=<gini = 0.0<br/>samples = 6<br/>value = [0, 0, 6, 0, 0]<br/>class = 2>, fillcolor="#39e5c5"] ;
573 -> 574 ;
575 [label=<gini = 0.245<br/>samples = 7<br/>value = [0, 0, 6, 0, 1]<br/>class = 2>, fillcolor="#5ae9cf"] ;
573 -> 575 ;
576 [label=<gini = 0.5<br/>samples = 2<br/>value = [0, 1, 1, 0, 0]<br/>class = 1>, fillcolor="#ffffff"] ;
572 -> 576 ;
577 [label=<gini = 0.0<br/>samples = 18<br/>value = [0, 0, 18, 0, 0]<br/>class = 2>, fillcolor="#39e5c5"] ;
571 -> 577 ;
578 [label=<Gender &le; 1.225<br/>gini = 0.654<br/>samples = 237<br/>value = [27, 84, 106, 20, 0]<br/>class = 2>, fillcolor="#e3fbf7"] ;
518 -> 578 ;
579 [label=<ParentalSupport &le; 0.5<br/>gini = 0.628<br/>samples = 118<br/>value = [9.0, 62.0, 32.0, 15.0, 0.0]<br/>class = 1>, fillcolor="#d1f6ba"] ;
578 -> 579 ;
580 [label=<StudyTimeWeekly &le; 0.5<br/>gini = 0.687<br/>samples = 92<br/>value = [9, 38, 30, 15, 0]<br/>class = 1>, fillcolor="#eefce5"] ;
579 -> 580 ;
581 [label=<Extracurricular &le; 0.5<br/>gini = 0.682<br/>samples = 79<br/>value = [9, 31, 29, 10, 0]<br/>class = 1>, fillcolor="#fafef7"] ;
580 -> 581 ;
582 [label=<Gender &le; 1.024<br/>gini = 0.375<br/>samples = 12<br/>value = [9, 0, 0, 3, 0]<br/>class = 0>, fillcolor="#eeab7b"] ;
581 -> 582 ;
583 [label=<gini = 0.0<br/>samples = 9<br/>value = [9, 0, 0, 0, 0]<br/>class = 0>, fillcolor="#e58139"] ;
582 -> 583 ;
584 [label=<gini = 0.0<br/>samples = 3<br/>value = [0, 0, 0, 3, 0]<br/>class = 3>, fillcolor="#3c39e5"] ;
582 -> 584 ;
585 [label=<Gender &le; 0.783<br/>gini = 0.588<br/>samples = 67<br/>value = [0.0, 31.0, 29.0, 7.0, 0.0]<br/>class = 1>, fillcolor="#f8fef5"] ;
581 -> 585 ;
586 [label=<Gender &le; 0.77<br/>gini = 0.124<br/>samples = 15<br/>value = [0, 14, 1, 0, 0]<br/>class = 1>, fillcolor="#84e747"] ;
585 -> 586 ;
587 [label=<gini = 0.375<br/>samples = 4<br/>value = [0, 3, 1, 0, 0]<br/>class = 1>, fillcolor="#a7ee7b"] ;
586 -> 587 ;
588 [label=<gini = 0.0<br/>samples = 11<br/>value = [0, 11, 0, 0, 0]<br/>class = 1>, fillcolor="#7be539"] ;
586 -> 588 ;
589 [label=<Tutoring &le; 1.5<br/>gini = 0.585<br/>samples = 52<br/>value = [0, 17, 28, 7, 0]<br/>class = 2>, fillcolor="#c1f7ed"] ;
585 -> 589 ;
590 [label=<Music &le; 0.5<br/>gini = 0.513<br/>samples = 28<br/>value = [0, 3, 18, 7, 0]<br/>class = 2>, fillcolor="#97f1e1"] ;
589 -> 590 ;
591 [label=<ParentalEducation &le; 8.5<br/>gini = 0.5<br/>samples = 14<br/>value = [0, 0, 7, 7, 0]<br/>class = 2>, fillcolor="#ffffff"] ;
590 -> 591 ;
592 [label=<ParentalEducation &le; 7.5<br/>gini = 0.346<br/>samples = 9<br/>value = [0, 0, 7, 2, 0]<br/>class = 2>, fillcolor="#72ecd6"] ;
591 -> 592 ;
593 [label=<gini = 0.0<br/>samples = 3<br/>value = [0, 0, 3, 0, 0]<br/>class = 2>, fillcolor="#39e5c5"] ;
592 -> 593 ;
594 [label=<Gender &le; 1.113<br/>gini = 0.444<br/>samples = 6<br/>value = [0, 0, 4, 2, 0]<br/>class = 2>, fillcolor="#9cf2e2"] ;
592 -> 594 ;
595 [label=<gini = 0.0<br/>samples = 2<br/>value = [0, 0, 0, 2, 0]<br/>class = 3>, fillcolor="#3c39e5"] ;
594 -> 595 ;
596 [label=<gini = 0.0<br/>samples = 4<br/>value = [0, 0, 4, 0, 0]<br/>class = 2>, fillcolor="#39e5c5"] ;
594 -> 596 ;
597 [label=<gini = 0.0<br/>samples = 5<br/>value = [0, 0, 0, 5, 0]<br/>class = 3>, fillcolor="#3c39e5"] ;
591 -> 597 ;
598 [label=<gini = 0.337<br/>samples = 14<br/>value = [0, 3, 11, 0, 0]<br/>class = 2>, fillcolor="#6fecd5"] ;
590 -> 598 ;
599 [label=<Music &le; 0.5<br/>gini = 0.486<br/>samples = 24<br/>value = [0, 14, 10, 0, 0]<br/>class = 1>, fillcolor="#d9f8c6"] ;
589 -> 599 ;
600 [label=<ParentalEducation &le; 7.0<br/>gini = 0.486<br/>samples = 12<br/>value = [0, 5, 7, 0, 0]<br/>class = 2>, fillcolor="#c6f8ee"] ;
599 -> 600 ;
601 [label=<Volunteering &le; 0.5<br/>gini = 0.408<br/>samples = 7<br/>value = [0, 5, 2, 0, 0]<br/>class = 1>, fillcolor="#b0ef88"] ;
600 -> 601 ;
602 [label=<gini = 0.0<br/>samples = 2<br/>value = [0, 0, 2, 0, 0]<br/>class = 2>, fillcolor="#39e5c5"] ;
601 -> 602 ;
603 [label=<gini = 0.0<br/>samples = 5<br/>value = [0, 5, 0, 0, 0]<br/>class = 1>, fillcolor="#7be539"] ;
601 -> 603 ;
604 [label=<gini = 0.0<br/>samples = 5<br/>value = [0, 0, 5, 0, 0]<br/>class = 2>, fillcolor="#39e5c5"] ;
600 -> 604 ;
605 [label=<ParentalEducation &le; 6.5<br/>gini = 0.375<br/>samples = 12<br/>value = [0, 9, 3, 0, 0]<br/>class = 1>, fillcolor="#a7ee7b"] ;
599 -> 605 ;
606 [label=<Gender &le; 1.087<br/>gini = 0.49<br/>samples = 7<br/>value = [0, 4, 3, 0, 0]<br/>class = 1>, fillcolor="#def8ce"] ;
605 -> 606 ;
607 [label=<gini = 0.0<br/>samples = 4<br/>value = [0, 4, 0, 0, 0]<br/>class = 1>, fillcolor="#7be539"] ;
606 -> 607 ;
608 [label=<gini = 0.0<br/>samples = 3<br/>value = [0, 0, 3, 0, 0]<br/>class = 2>, fillcolor="#39e5c5"] ;
606 -> 608 ;
609 [label=<gini = 0.0<br/>samples = 5<br/>value = [0, 5, 0, 0, 0]<br/>class = 1>, fillcolor="#7be539"] ;
605 -> 609 ;
610 [label=<ParentalEducation &le; 7.5<br/>gini = 0.556<br/>samples = 13<br/>value = [0, 7, 1, 5, 0]<br/>class = 1>, fillcolor="#def8ce"] ;
580 -> 610 ;
611 [label=<gini = 0.0<br/>samples = 7<br/>value = [0, 7, 0, 0, 0]<br/>class = 1>, fillcolor="#7be539"] ;
610 -> 611 ;
612 [label=<Tutoring &le; 2.5<br/>gini = 0.278<br/>samples = 6<br/>value = [0, 0, 1, 5, 0]<br/>class = 3>, fillcolor="#6361ea"] ;
610 -> 612 ;
613 [label=<gini = 0.5<br/>samples = 2<br/>value = [0, 0, 1, 1, 0]<br/>class = 2>, fillcolor="#ffffff"] ;
612 -> 613 ;
614 [label=<gini = 0.0<br/>samples = 4<br/>value = [0, 0, 0, 4, 0]<br/>class = 3>, fillcolor="#3c39e5"] ;
612 -> 614 ;
615 [label=<StudyTimeWeekly &le; 0.5<br/>gini = 0.142<br/>samples = 26<br/>value = [0, 24, 2, 0, 0]<br/>class = 1>, fillcolor="#86e749"] ;
579 -> 615 ;
616 [label=<gini = 0.0<br/>samples = 23<br/>value = [0, 23, 0, 0, 0]<br/>class = 1>, fillcolor="#7be539"] ;
615 -> 616 ;
617 [label=<gini = 0.444<br/>samples = 3<br/>value = [0, 1, 2, 0, 0]<br/>class = 2>, fillcolor="#9cf2e2"] ;
615 -> 617 ;
618 [label=<Music &le; 0.5<br/>gini = 0.554<br/>samples = 119<br/>value = [18, 22, 74, 5, 0]<br/>class = 2>, fillcolor="#95f1e0"] ;
578 -> 618 ;
619 [label=<ParentalEducation &le; 9.0<br/>gini = 0.312<br/>samples = 66<br/>value = [0, 8, 54, 4, 0]<br/>class = 2>, fillcolor="#62ead1"] ;
618 -> 619 ;
620 [label=<Gender &le; 1.581<br/>gini = 0.231<br/>samples = 60<br/>value = [0, 8, 52, 0, 0]<br/>class = 2>, fillcolor="#57e9ce"] ;
619 -> 620 ;
621 [label=<Gender &le; 1.521<br/>gini = 0.038<br/>samples = 51<br/>value = [0, 1, 50, 0, 0]<br/>class = 2>, fillcolor="#3de6c6"] ;
620 -> 621 ;
622 [label=<gini = 0.0<br/>samples = 48<br/>value = [0, 0, 48, 0, 0]<br/>class = 2>, fillcolor="#39e5c5"] ;
621 -> 622 ;
623 [label=<gini = 0.444<br/>samples = 3<br/>value = [0, 1, 2, 0, 0]<br/>class = 2>, fillcolor="#9cf2e2"] ;
621 -> 623 ;
624 [label=<Gender &le; 1.637<br/>gini = 0.346<br/>samples = 9<br/>value = [0, 7, 2, 0, 0]<br/>class = 1>, fillcolor="#a1ec72"] ;
620 -> 624 ;
625 [label=<gini = 0.5<br/>samples = 4<br/>value = [0, 2, 2, 0, 0]<br/>class = 1>, fillcolor="#ffffff"] ;
624 -> 625 ;
626 [label=<gini = 0.0<br/>samples = 5<br/>value = [0, 5, 0, 0, 0]<br/>class = 1>, fillcolor="#7be539"] ;
624 -> 626 ;
627 [label=<Extracurricular &le; 3.5<br/>gini = 0.444<br/>samples = 6<br/>value = [0, 0, 2, 4, 0]<br/>class = 3>, fillcolor="#9e9cf2"] ;
619 -> 627 ;
628 [label=<gini = 0.0<br/>samples = 2<br/>value = [0, 0, 2, 0, 0]<br/>class = 2>, fillcolor="#39e5c5"] ;
627 -> 628 ;
629 [label=<gini = 0.0<br/>samples = 4<br/>value = [0, 0, 0, 4, 0]<br/>class = 3>, fillcolor="#3c39e5"] ;
627 -> 629 ;
630 [label=<Volunteering &le; 0.5<br/>gini = 0.672<br/>samples = 53<br/>value = [18, 14, 20, 1, 0]<br/>class = 2>, fillcolor="#f4fefc"] ;
618 -> 630 ;
631 [label=<StudyTimeWeekly &le; 0.5<br/>gini = 0.569<br/>samples = 40<br/>value = [18, 2, 19, 1, 0]<br/>class = 2>, fillcolor="#f6fefc"] ;
630 -> 631 ;
632 [label=<ParentalSupport &le; 0.5<br/>gini = 0.51<br/>samples = 27<br/>value = [8, 2, 17, 0, 0]<br/>class = 2>, fillcolor="#a1f3e4"] ;
631 -> 632 ;
633 [label=<Gender &le; 1.346<br/>gini = 0.562<br/>samples = 22<br/>value = [8, 2, 12, 0, 0]<br/>class = 2>, fillcolor="#c6f8ee"] ;
632 -> 633 ;
634 [label=<gini = 0.198<br/>samples = 9<br/>value = [8, 0, 1, 0, 0]<br/>class = 0>, fillcolor="#e89152"] ;
633 -> 634 ;
635 [label=<Gender &le; 1.412<br/>gini = 0.26<br/>samples = 13<br/>value = [0, 2, 11, 0, 0]<br/>class = 2>, fillcolor="#5dead0"] ;
633 -> 635 ;
636 [label=<gini = 0.0<br/>samples = 8<br/>value = [0, 0, 8, 0, 0]<br/>class = 2>, fillcolor="#39e5c5"] ;
635 -> 636 ;
637 [label=<Extracurricular &le; 2.5<br/>gini = 0.48<br/>samples = 5<br/>value = [0, 2, 3, 0, 0]<br/>class = 2>, fillcolor="#bdf6ec"] ;
635 -> 637 ;
638 [label=<gini = 0.0<br/>samples = 2<br/>value = [0, 0, 2, 0, 0]<br/>class = 2>, fillcolor="#39e5c5"] ;
637 -> 638 ;
639 [label=<gini = 0.444<br/>samples = 3<br/>value = [0, 2, 1, 0, 0]<br/>class = 1>, fillcolor="#bdf29c"] ;
637 -> 639 ;
640 [label=<gini = 0.0<br/>samples = 5<br/>value = [0, 0, 5, 0, 0]<br/>class = 2>, fillcolor="#39e5c5"] ;
632 -> 640 ;
641 [label=<Extracurricular &le; 2.5<br/>gini = 0.379<br/>samples = 13<br/>value = [10, 0, 2, 1, 0]<br/>class = 0>, fillcolor="#eca36f"] ;
631 -> 641 ;
642 [label=<gini = 0.444<br/>samples = 3<br/>value = [0, 0, 2, 1, 0]<br/>class = 2>, fillcolor="#9cf2e2"] ;
641 -> 642 ;
643 [label=<gini = 0.0<br/>samples = 10<br/>value = [10, 0, 0, 0, 0]<br/>class = 0>, fillcolor="#e58139"] ;
641 -> 643 ;
644 [label=<ParentalSupport &le; 0.5<br/>gini = 0.142<br/>samples = 13<br/>value = [0, 12, 1, 0, 0]<br/>class = 1>, fillcolor="#86e749"] ;
630 -> 644 ;
645 [label=<gini = 0.375<br/>samples = 4<br/>value = [0, 3, 1, 0, 0]<br/>class = 1>, fillcolor="#a7ee7b"] ;
644 -> 645 ;
646 [label=<gini = 0.0<br/>samples = 9<br/>value = [0, 9, 0, 0, 0]<br/>class = 1>, fillcolor="#7be539"] ;
644 -> 646 ;
647 [label=<Volunteering &le; 0.5<br/>gini = 0.676<br/>samples = 439<br/>value = [54, 98, 212, 71, 4]<br/>class = 2>, fillcolor="#bdf6ec"] ;
399 -> 647 ;
648 [label=<ParentalEducation &le; 6.5<br/>gini = 0.663<br/>samples = 369<br/>value = [54.0, 63.0, 187.0, 63.0, 2.0]<br/>class = 2>, fillcolor="#aff4e7"] ;
647 -> 648 ;
649 [label=<Absences &le; 0.5<br/>gini = 0.723<br/>samples = 158<br/>value = [48, 41, 51, 18, 0]<br/>class = 2>, fillcolor="#fafefd"] ;
648 -> 649 ;
650 [label=<Gender &le; 0.107<br/>gini = 0.684<br/>samples = 104<br/>value = [48, 18, 25, 13, 0]<br/>class = 0>, fillcolor="#f7dac5"] ;
649 -> 650 ;
651 [label=<ParentalEducation &le; 5.5<br/>gini = 0.699<br/>samples = 52<br/>value = [17, 5, 20, 10, 0]<br/>class = 2>, fillcolor="#eefdfa"] ;
650 -> 651 ;
652 [label=<Music &le; 0.5<br/>gini = 0.658<br/>samples = 30<br/>value = [8, 0, 12, 10, 0]<br/>class = 2>, fillcolor="#ebfcf9"] ;
651 -> 652 ;
653 [label=<Extracurricular &le; 2.5<br/>gini = 0.663<br/>samples = 28<br/>value = [8, 0, 10, 10, 0]<br/>class = 2>, fillcolor="#ffffff"] ;
652 -> 653 ;
654 [label=<gini = 0.463<br/>samples = 11<br/>value = [0, 0, 7, 4, 0]<br/>class = 2>, fillcolor="#aaf4e6"] ;
653 -> 654 ;
655 [label=<Gender &le; -1.251<br/>gini = 0.623<br/>samples = 17<br/>value = [8, 0, 3, 6, 0]<br/>class = 0>, fillcolor="#fae8db"] ;
653 -> 655 ;
656 [label=<gini = 0.0<br/>samples = 8<br/>value = [8, 0, 0, 0, 0]<br/>class = 0>, fillcolor="#e58139"] ;
655 -> 656 ;
657 [label=<Extracurricular &le; 3.5<br/>gini = 0.444<br/>samples = 9<br/>value = [0, 0, 3, 6, 0]<br/>class = 3>, fillcolor="#9e9cf2"] ;
655 -> 657 ;
658 [label=<gini = 0.0<br/>samples = 6<br/>value = [0, 0, 0, 6, 0]<br/>class = 3>, fillcolor="#3c39e5"] ;
657 -> 658 ;
659 [label=<gini = 0.0<br/>samples = 3<br/>value = [0, 0, 3, 0, 0]<br/>class = 2>, fillcolor="#39e5c5"] ;
657 -> 659 ;
660 [label=<gini = 0.0<br/>samples = 2<br/>value = [0, 0, 2, 0, 0]<br/>class = 2>, fillcolor="#39e5c5"] ;
652 -> 660 ;
661 [label=<Gender &le; -0.856<br/>gini = 0.649<br/>samples = 22<br/>value = [9, 5, 8, 0, 0]<br/>class = 0>, fillcolor="#fdf6f1"] ;
651 -> 661 ;
662 [label=<gini = 0.498<br/>samples = 17<br/>value = [9, 0, 8, 0, 0]<br/>class = 0>, fillcolor="#fcf1e9"] ;
661 -> 662 ;
663 [label=<gini = 0.0<br/>samples = 5<br/>value = [0, 5, 0, 0, 0]<br/>class = 1>, fillcolor="#7be539"] ;
661 -> 663 ;
664 [label=<ParentalEducation &le; 5.5<br/>gini = 0.57<br/>samples = 52<br/>value = [31, 13, 5, 3, 0]<br/>class = 0>, fillcolor="#f3c5a4"] ;
650 -> 664 ;
665 [label=<Extracurricular &le; 1.5<br/>gini = 0.486<br/>samples = 12<br/>value = [0, 8, 1, 3, 0]<br/>class = 1>, fillcolor="#b6f191"] ;
664 -> 665 ;
666 [label=<gini = 0.375<br/>samples = 4<br/>value = [0, 0, 1, 3, 0]<br/>class = 3>, fillcolor="#7d7bee"] ;
665 -> 666 ;
667 [label=<gini = 0.0<br/>samples = 8<br/>value = [0, 8, 0, 0, 0]<br/>class = 1>, fillcolor="#7be539"] ;
665 -> 667 ;
668 [label=<ParentalSupport &le; 0.5<br/>gini = 0.374<br/>samples = 40<br/>value = [31, 5, 4, 0, 0]<br/>class = 0>, fillcolor="#eca16c"] ;
664 -> 668 ;
669 [label=<gini = 0.0<br/>samples = 4<br/>value = [0, 0, 4, 0, 0]<br/>class = 2>, fillcolor="#39e5c5"] ;
668 -> 669 ;
670 [label=<Music &le; 0.5<br/>gini = 0.239<br/>samples = 36<br/>value = [31, 5, 0, 0, 0]<br/>class = 0>, fillcolor="#e99559"] ;
668 -> 670 ;
671 [label=<gini = 0.0<br/>samples = 5<br/>value = [0, 5, 0, 0, 0]<br/>class = 1>, fillcolor="#7be539"] ;
670 -> 671 ;
672 [label=<gini = 0.0<br/>samples = 31<br/>value = [31, 0, 0, 0, 0]<br/>class = 0>, fillcolor="#e58139"] ;
670 -> 672 ;
673 [label=<Music &le; 0.5<br/>gini = 0.578<br/>samples = 54<br/>value = [0, 23, 26, 5, 0]<br/>class = 2>, fillcolor="#ecfcf9"] ;
649 -> 673 ;
674 [label=<Extracurricular &le; 0.5<br/>gini = 0.586<br/>samples = 40<br/>value = [0, 14, 21, 5, 0]<br/>class = 2>, fillcolor="#caf8ef"] ;
673 -> 674 ;
675 [label=<gini = 0.0<br/>samples = 4<br/>value = [0, 4, 0, 0, 0]<br/>class = 1>, fillcolor="#7be539"] ;
674 -> 675 ;
676 [label=<ParentalSupport &le; 0.5<br/>gini = 0.563<br/>samples = 36<br/>value = [0, 10, 21, 5, 0]<br/>class = 2>, fillcolor="#abf4e6"] ;
674 -> 676 ;
677 [label=<Extracurricular &le; 2.5<br/>gini = 0.435<br/>samples = 29<br/>value = [0, 3, 21, 5, 0]<br/>class = 2>, fillcolor="#7beed8"] ;
676 -> 677 ;
678 [label=<Extracurricular &le; 1.5<br/>gini = 0.631<br/>samples = 15<br/>value = [0, 3, 7, 5, 0]<br/>class = 2>, fillcolor="#d7faf3"] ;
677 -> 678 ;
679 [label=<Gender &le; -0.001<br/>gini = 0.49<br/>samples = 7<br/>value = [0, 0, 4, 3, 0]<br/>class = 2>, fillcolor="#cef8f0"] ;
678 -> 679 ;
680 [label=<gini = 0.0<br/>samples = 3<br/>value = [0, 0, 0, 3, 0]<br/>class = 3>, fillcolor="#3c39e5"] ;
679 -> 680 ;
681 [label=<gini = 0.0<br/>samples = 4<br/>value = [0, 0, 4, 0, 0]<br/>class = 2>, fillcolor="#39e5c5"] ;
679 -> 681 ;
682 [label=<gini = 0.656<br/>samples = 8<br/>value = [0, 3, 3, 2, 0]<br/>class = 1>, fillcolor="#ffffff"] ;
678 -> 682 ;
683 [label=<gini = 0.0<br/>samples = 14<br/>value = [0, 0, 14, 0, 0]<br/>class = 2>, fillcolor="#39e5c5"] ;
677 -> 683 ;
684 [label=<gini = 0.0<br/>samples = 7<br/>value = [0, 7, 0, 0, 0]<br/>class = 1>, fillcolor="#7be539"] ;
676 -> 684 ;
685 [label=<ParentalSupport &le; 0.5<br/>gini = 0.459<br/>samples = 14<br/>value = [0, 9, 5, 0, 0]<br/>class = 1>, fillcolor="#c4f3a7"] ;
673 -> 685 ;
686 [label=<Gender &le; 0.152<br/>gini = 0.486<br/>samples = 12<br/>value = [0, 7, 5, 0, 0]<br/>class = 1>, fillcolor="#d9f8c6"] ;
685 -> 686 ;
687 [label=<gini = 0.0<br/>samples = 7<br/>value = [0, 7, 0, 0, 0]<br/>class = 1>, fillcolor="#7be539"] ;
686 -> 687 ;
688 [label=<gini = 0.0<br/>samples = 5<br/>value = [0, 0, 5, 0, 0]<br/>class = 2>, fillcolor="#39e5c5"] ;
686 -> 688 ;
689 [label=<gini = 0.0<br/>samples = 2<br/>value = [0, 2, 0, 0, 0]<br/>class = 1>, fillcolor="#7be539"] ;
685 -> 689 ;
690 [label=<ParentalEducation &le; 9.5<br/>gini = 0.527<br/>samples = 211<br/>value = [6, 22, 136, 45, 2]<br/>class = 2>, fillcolor="#92f1df"] ;
648 -> 690 ;
691 [label=<StudyTimeWeekly &le; 0.5<br/>gini = 0.517<br/>samples = 180<br/>value = [6, 22, 119, 31, 2]<br/>class = 2>, fillcolor="#8af0dd"] ;
690 -> 691 ;
692 [label=<Extracurricular &le; 3.5<br/>gini = 0.516<br/>samples = 155<br/>value = [6, 22, 103, 22, 2]<br/>class = 2>, fillcolor="#86efdc"] ;
691 -> 692 ;
693 [label=<Gender &le; 1.229<br/>gini = 0.471<br/>samples = 146<br/>value = [6, 15, 103, 20, 2]<br/>class = 2>, fillcolor="#7deed9"] ;
692 -> 693 ;
694 [label=<Tutoring &le; 3.5<br/>gini = 0.434<br/>samples = 137<br/>value = [0, 15, 100, 20, 2]<br/>class = 2>, fillcolor="#78edd7"] ;
693 -> 694 ;
695 [label=<Extracurricular &le; 2.5<br/>gini = 0.373<br/>samples = 126<br/>value = [0, 15, 98, 11, 2]<br/>class = 2>, fillcolor="#6becd4"] ;
694 -> 695 ;
696 [label=<Absences &le; 0.5<br/>gini = 0.317<br/>samples = 77<br/>value = [0.0, 5.0, 63.0, 7.0, 2.0]<br/>class = 2>, fillcolor="#61ead1"] ;
695 -> 696 ;
697 [label=<Music &le; 0.5<br/>gini = 0.449<br/>samples = 32<br/>value = [0, 3, 23, 5, 1]<br/>class = 2>, fillcolor="#7beed8"] ;
696 -> 697 ;
698 [label=<Extracurricular &le; 1.5<br/>gini = 0.349<br/>samples = 19<br/>value = [0, 0, 15, 3, 1]<br/>class = 2>, fillcolor="#6aecd4"] ;
697 -> 698 ;
699 [label=<gini = 0.56<br/>samples = 5<br/>value = [0, 0, 3, 1, 1]<br/>class = 2>, fillcolor="#9cf2e2"] ;
698 -> 699 ;
700 [label=<Gender &le; -0.759<br/>gini = 0.245<br/>samples = 14<br/>value = [0, 0, 12, 2, 0]<br/>class = 2>, fillcolor="#5ae9cf"] ;
698 -> 700 ;
701 [label=<gini = 0.0<br/>samples = 2<br/>value = [0, 0, 0, 2, 0]<br/>class = 3>, fillcolor="#3c39e5"] ;
700 -> 701 ;
702 [label=<gini = 0.0<br/>samples = 12<br/>value = [0, 0, 12, 0, 0]<br/>class = 2>, fillcolor="#39e5c5"] ;
700 -> 702 ;
703 [label=<Tutoring &le; 1.5<br/>gini = 0.544<br/>samples = 13<br/>value = [0, 3, 8, 2, 0]<br/>class = 2>, fillcolor="#9cf2e2"] ;
697 -> 703 ;
704 [label=<gini = 0.0<br/>samples = 5<br/>value = [0, 0, 5, 0, 0]<br/>class = 2>, fillcolor="#39e5c5"] ;
703 -> 704 ;
705 [label=<Extracurricular &le; 0.5<br/>gini = 0.656<br/>samples = 8<br/>value = [0, 3, 3, 2, 0]<br/>class = 1>, fillcolor="#ffffff"] ;
703 -> 705 ;
706 [label=<gini = 0.0<br/>samples = 3<br/>value = [0, 0, 3, 0, 0]<br/>class = 2>, fillcolor="#39e5c5"] ;
705 -> 706 ;
707 [label=<gini = 0.48<br/>samples = 5<br/>value = [0, 3, 0, 2, 0]<br/>class = 1>, fillcolor="#d3f6bd"] ;
705 -> 707 ;
708 [label=<Tutoring &le; 1.5<br/>gini = 0.205<br/>samples = 45<br/>value = [0, 2, 40, 2, 1]<br/>class = 2>, fillcolor="#50e8cc"] ;
696 -> 708 ;
709 [label=<gini = 0.0<br/>samples = 13<br/>value = [0, 0, 13, 0, 0]<br/>class = 2>, fillcolor="#39e5c5"] ;
708 -> 709 ;
710 [label=<Extracurricular &le; 1.5<br/>gini = 0.279<br/>samples = 32<br/>value = [0, 2, 27, 2, 1]<br/>class = 2>, fillcolor="#5ae9cf"] ;
708 -> 710 ;
711 [label=<Music &le; 0.5<br/>gini = 0.345<br/>samples = 20<br/>value = [0, 2, 16, 1, 1]<br/>class = 2>, fillcolor="#65ebd2"] ;
710 -> 711 ;
712 [label=<gini = 0.165<br/>samples = 11<br/>value = [0, 0, 10, 0, 1]<br/>class = 2>, fillcolor="#4de8cb"] ;
711 -> 712 ;
713 [label=<gini = 0.494<br/>samples = 9<br/>value = [0, 2, 6, 1, 0]<br/>class = 2>, fillcolor="#8ef0de"] ;
711 -> 713 ;
714 [label=<Music &le; 0.5<br/>gini = 0.153<br/>samples = 12<br/>value = [0, 0, 11, 1, 0]<br/>class = 2>, fillcolor="#4be7ca"] ;
710 -> 714 ;
715 [label=<gini = 0.32<br/>samples = 5<br/>value = [0, 0, 4, 1, 0]<br/>class = 2>, fillcolor="#6aecd4"] ;
714 -> 715 ;
716 [label=<gini = 0.0<br/>samples = 7<br/>value = [0, 0, 7, 0, 0]<br/>class = 2>, fillcolor="#39e5c5"] ;
714 -> 716 ;
717 [label=<Gender &le; -1.695<br/>gini = 0.441<br/>samples = 49<br/>value = [0.0, 10.0, 35.0, 4.0, 0.0]<br/>class = 2>, fillcolor="#80eeda"] ;
695 -> 717 ;
718 [label=<gini = 0.0<br/>samples = 2<br/>value = [0, 0, 0, 2, 0]<br/>class = 3>, fillcolor="#3c39e5"] ;
717 -> 718 ;
719 [label=<Tutoring &le; 2.5<br/>gini = 0.398<br/>samples = 47<br/>value = [0, 10, 35, 2, 0]<br/>class = 2>, fillcolor="#79edd8"] ;
717 -> 719 ;
720 [label=<Gender &le; -0.014<br/>gini = 0.22<br/>samples = 33<br/>value = [0, 2, 29, 2, 0]<br/>class = 2>, fillcolor="#53e8cc"] ;
719 -> 720 ;
721 [label=<Tutoring &le; 0.5<br/>gini = 0.355<br/>samples = 19<br/>value = [0, 2, 15, 2, 0]<br/>class = 2>, fillcolor="#68ebd3"] ;
720 -> 721 ;
722 [label=<gini = 0.0<br/>samples = 2<br/>value = [0, 0, 0, 2, 0]<br/>class = 3>, fillcolor="#3c39e5"] ;
721 -> 722 ;
723 [label=<gini = 0.208<br/>samples = 17<br/>value = [0, 2, 15, 0, 0]<br/>class = 2>, fillcolor="#53e8cd"] ;
721 -> 723 ;
724 [label=<gini = 0.0<br/>samples = 14<br/>value = [0, 0, 14, 0, 0]<br/>class = 2>, fillcolor="#39e5c5"] ;
720 -> 724 ;
725 [label=<Absences &le; 0.5<br/>gini = 0.49<br/>samples = 14<br/>value = [0, 8, 6, 0, 0]<br/>class = 1>, fillcolor="#def8ce"] ;
719 -> 725 ;
726 [label=<gini = 0.0<br/>samples = 3<br/>value = [0, 3, 0, 0, 0]<br/>class = 1>, fillcolor="#7be539"] ;
725 -> 726 ;
727 [label=<ParentalSupport &le; 0.5<br/>gini = 0.496<br/>samples = 11<br/>value = [0, 5, 6, 0, 0]<br/>class = 2>, fillcolor="#defbf5"] ;
725 -> 727 ;
728 [label=<gini = 0.0<br/>samples = 6<br/>value = [0, 0, 6, 0, 0]<br/>class = 2>, fillcolor="#39e5c5"] ;
727 -> 728 ;
729 [label=<gini = 0.0<br/>samples = 5<br/>value = [0, 5, 0, 0, 0]<br/>class = 1>, fillcolor="#7be539"] ;
727 -> 729 ;
730 [label=<Music &le; 0.5<br/>gini = 0.298<br/>samples = 11<br/>value = [0, 0, 2, 9, 0]<br/>class = 3>, fillcolor="#6765eb"] ;
694 -> 730 ;
731 [label=<Gender &le; 0.009<br/>gini = 0.444<br/>samples = 6<br/>value = [0, 0, 2, 4, 0]<br/>class = 3>, fillcolor="#9e9cf2"] ;
730 -> 731 ;
732 [label=<gini = 0.0<br/>samples = 2<br/>value = [0, 0, 2, 0, 0]<br/>class = 2>, fillcolor="#39e5c5"] ;
731 -> 732 ;
733 [label=<gini = 0.0<br/>samples = 4<br/>value = [0, 0, 0, 4, 0]<br/>class = 3>, fillcolor="#3c39e5"] ;
731 -> 733 ;
734 [label=<gini = 0.0<br/>samples = 5<br/>value = [0, 0, 0, 5, 0]<br/>class = 3>, fillcolor="#3c39e5"] ;
730 -> 734 ;
735 [label=<ParentalSupport &le; 0.5<br/>gini = 0.444<br/>samples = 9<br/>value = [6, 0, 3, 0, 0]<br/>class = 0>, fillcolor="#f2c09c"] ;
693 -> 735 ;
736 [label=<gini = 0.0<br/>samples = 3<br/>value = [0, 0, 3, 0, 0]<br/>class = 2>, fillcolor="#39e5c5"] ;
735 -> 736 ;
737 [label=<gini = 0.0<br/>samples = 6<br/>value = [6, 0, 0, 0, 0]<br/>class = 0>, fillcolor="#e58139"] ;
735 -> 737 ;
738 [label=<Gender &le; -0.948<br/>gini = 0.346<br/>samples = 9<br/>value = [0, 7, 0, 2, 0]<br/>class = 1>, fillcolor="#a1ec72"] ;
692 -> 738 ;
739 [label=<gini = 0.0<br/>samples = 2<br/>value = [0, 0, 0, 2, 0]<br/>class = 3>, fillcolor="#3c39e5"] ;
738 -> 739 ;
740 [label=<gini = 0.0<br/>samples = 7<br/>value = [0, 7, 0, 0, 0]<br/>class = 1>, fillcolor="#7be539"] ;
738 -> 740 ;
741 [label=<Music &le; 0.5<br/>gini = 0.461<br/>samples = 25<br/>value = [0, 0, 16, 9, 0]<br/>class = 2>, fillcolor="#a8f4e6"] ;
691 -> 741 ;
742 [label=<Absences &le; 0.5<br/>gini = 0.48<br/>samples = 15<br/>value = [0, 0, 6, 9, 0]<br/>class = 3>, fillcolor="#bebdf6"] ;
741 -> 742 ;
743 [label=<gini = 0.375<br/>samples = 4<br/>value = [0, 0, 3, 1, 0]<br/>class = 2>, fillcolor="#7beed8"] ;
742 -> 743 ;
744 [label=<ParentalSupport &le; 0.5<br/>gini = 0.397<br/>samples = 11<br/>value = [0, 0, 3, 8, 0]<br/>class = 3>, fillcolor="#8583ef"] ;
742 -> 744 ;
745 [label=<gini = 0.0<br/>samples = 8<br/>value = [0, 0, 0, 8, 0]<br/>class = 3>, fillcolor="#3c39e5"] ;
744 -> 745 ;
